{"layer_count":3,"d":[785,17,11],"w":[[[0.680375434309419,-0.19036013465474227,0.6586598536829792,0.6944034826460621,0.8685261029014147,-0.7156763314048826,-0.4060958657651313,0.592475589837803,-0.3261227027481186,0.18965298655266602,0.03458522243436868,0.16355797138208697,-0.17395984415434013,0.1410378473210043,0.9873781776619938,0.6908554861919118,-0.028753402650874532],[0.2714234559198019,0.4596840947593756,-0.796589342161487,0.14037358613452652,-1.0107752295733545,-0.4316653153334561,-0.6714082636025097,0.5911529123968399,-0.7665297533924839,-0.2552860303237293,-0.784838565445241,-0.7053812081577444,0.940589734020548,-0.6404992566939015,-0.011234248516728034,0.7238443809527418,0.036665218462639156],[0.22527966519132248,-0.41276272094282235,0.2147700379647853,-0.01990305128011358,-0.05510506485700979,1.01902727948878,-0.3577402178835119,0.5197746828453952,-0.04167639609668841,0.47918958149949664,-0.25085990780884004,0.8593806445415266,-0.4883360345294629,-0.3664624273949257,0.5464027878849926,0.8815099197125082,0.027540132210278862],[-0.8604894475361748,0.8890381006521535,0.01321436390688788,-0.902340106082306,-0.6650938553639967,0.40245859381342997,0.8427718000658861,-0.3294829601348166,-0.9647513790387278,-1.0170747181364095,-0.14576091777814634,-0.7938553068441622,-0.5859952841311271,0.8545168986268342,0.728444491626945,0.7443620225889543,0.02672938603066419],[-0.4666685012479632,0.05359531385294884,-0.279843294952637,0.4466968957078949,-0.01410011755065042,0.4020658924298518,0.1366920087655445,-0.9600938588925917,-0.2155470693929708,0.7978800660967089,0.7944559186034508,0.522175977119938,-0.4981503145993601,0.37061886988995335,0.20236077606474812,-0.21360048117025415,0.019203376802834515],[0.3757227805330059,-0.6901884062474577,-0.16128216255110875,0.677916237461001,0.6186755295087362,-0.28179577960714647,-0.469728808986116,0.738012363428659,-0.3613915609511446,0.3106203339890384,0.8720557128614455,0.26340997858554877,0.23659490579289794,0.6059744173204795,-0.1814157502406963,0.9718770134443521,0.0178227788528574],[-0.2031266666963355,0.6090796656108549,0.3105560778658067,0.7281191950197599,-0.07520423218122185,-0.5151441091545514,0.9544074467565382,0.7941183124033927,-0.7655398152242926,0.6979929376562833,0.2624657308142369,-0.051739910739972916,0.15875123282024947,-0.5389692652394754,0.5379289204876743,-0.25145348280640917,0.007695737841710331],[-0.1059328415924371,-0.5634707034423267,-0.6642629110068874,-0.5325294416679528,0.06539867399677926,-0.11348698872069406,-0.6104240818864278,0.7669219644016758,-0.8259190412648322,-0.8193497466763064,-0.01790783724376119,0.5972952799708103,0.8837935590423991,0.7705694786437367,0.3368432192522469,-0.09990183280777122,-0.000986665599069694],[0.4995417648458582,-0.2783960828739937,-0.4453676340297168,-0.6099094302609165,0.12497758887519012,-0.47138299164093295,-0.6461958085083331,0.41964211005449453,-0.7617585373396819,0.5188421365079958,-0.6901185232204169,0.5581119691629368,-0.9185691919509806,0.8101407848888501,-0.9233274935871908,0.17048977612143043,-0.005799311438202819],[-0.6475786872429674,-0.5237835031710695,0.5772465047334582,0.39467289126022587,0.28622118809500213,0.9580854965583914,0.31421920291049144,0.4799578930799349,-0.8495391942278138,-0.7770666144419334,-0.02359840372510963,-0.786536764414063,-0.9024716165974056,-0.6739750296456161,-0.11147866952528947,0.7590996663130001,-0.006970452669015913],[0.14663725679118067,0.5104382276320999,-0.900482557840903,-0.7512134623805681,0.9661757944723719,-0.5621549957192925,0.8016062268557184,-0.7861927732454516,0.901776020382978,-0.9227083682660289,0.6666850120466398,-0.8167960499240919,-1.0218118874090696,0.77204091449517,0.1360875116364411,-0.5238013053632263,-0.004619049703416303],[-0.6737370014534039,-0.22054243661496,0.8042221313937218,0.5919183127535479,-0.3161438932501326,0.14848164773969388,0.16422905839380833,-0.12921564881761857,0.2620843949078003,-0.8195386847182846,-0.01145115511870601,0.5467073548023211,-0.42559724251309156,0.9262758308419536,0.10799652776037208,0.8608845831316696,0.015657418045532286],[0.4956185927128507,0.2621826013142032,-0.955156983762091,0.45853259936042584,0.6254839697131076,0.9071317637774624,0.7404892341222029,0.6320503282677638,0.8466568515842358,0.4778465977264992,0.7388869363665712,0.9841842239825984,0.298845806407499,-0.03222873777337608,-0.7281095937697919,0.7498672412282174,0.023557805561840374],[0.7778975003296031,-0.8409949958969741,0.2521810099829388,-0.5366130342834172,0.21915885404268987,-0.4773186700066155,0.40928684392239056,-0.3927872376258555,-0.4406115459733502,-0.5206996935668323,-0.9244067257168862,0.3017667182085726,-0.5799244936806258,0.27945737679377924,-0.04522771485785635,1.048090047566717,0.02441731513552256],[-0.4399159734323229,0.09298458123885724,0.38911751149961554,-0.8067496340454663,-0.09208214722786401,0.24926359481104235,0.9084784209693467,-0.0940150685168766,-0.41951718792526943,0.7040507511313538,-0.20416153355718009,-0.9311282374171361,-0.3455989197383308,0.14279259235595573,0.6032714752427287,-0.4620964125790259,0.01681380427995465],[0.35095196093942604,-0.05615793639502989,-0.09786368613918775,-0.4088968346218525,0.39288138341404716,-0.5835852451492435,0.27653980618446017,-0.8947601804458795,-0.27666526952922793,0.3871410138186536,0.27775820704178666,0.34819149644888386,-0.36380948374097577,-0.6875487107503513,0.15874918141253,0.3239175940364714,0.015859360555380956],[0.46145869114504134,-0.36422060677664875,0.406709116880167,-0.5943046322697667,0.7953090588909568,0.4111491743933,0.3289507417397373,-0.46624444850179425,-0.04976927195247387,-0.8483413275476203,-0.5495436738362831,0.8357111928138029,0.3118162349715453,-0.8726263337686898,-0.8450283537847365,-0.21498611072853346,0.01597182541757876],[0.15338103154365945,0.1737795813162272,0.2467200418981933,-0.43128878658000996,0.4998652501433746,-0.37654292426756086,-0.31968758183316554,-0.616265994942589,0.85151475468709,-1.0210120091472366,0.5859931502966609,-0.2700408394537975,-0.6953542332324454,-0.19842437499065027,0.8422585683979031,0.9019318857792572,0.02441041998319674],[0.5297428702608415,0.3892206877067668,-0.8182567945446608,0.3553788764981212,-0.2835439093906131,0.6068029695517287,0.9068240630223625,0.8220623749534683,0.6107701641217477,-0.6166557409975444,0.5188748972154977,0.16425763419651018,-0.48189138317797914,0.7176480540058402,0.7406453766138852,0.820261074363929,0.025828117977613828],[-0.0037121470103562704,0.14474366789747178,-0.71136758416589,-0.4666791593383554,0.6795548613840874,0.0615216500228566,-0.05617150444699752,0.6800225320219492,-0.10929639124143416,-0.4404341181274245,-0.690800050243697,0.44098802868266623,0.3935495908987026,-0.8272160119405648,0.12409015874930589,0.0521722339905912,0.024781807094288413],[0.6762672055867813,0.44856756078901017,-0.6812371086359414,-0.5629832749605262,-0.05722763768943779,-0.6521692921653217,-0.7223267697862802,-0.3222746572534228,-0.454350413357314,0.838216649792446,0.7795541316537129,0.3169609288856732,0.6296768614975901,0.5514884125926929,-0.0942803650023568,-0.23380040038711572,0.02468785664020059],[-0.21134568062207926,0.30400794429259886,0.16929538038121628,-0.49900762655282593,-0.7521197318719117,-0.7450516864881682,-0.7650574893129266,0.24476460562815172,-0.36941073939822455,-0.44811936262334545,-0.37753344411909706,-0.73644115060419435,-0.20531637851027656,0.814010518007978,0.08662325841390305,-0.3533854621658323,0.02542282043278868],[0.31749326890217766,0.5125548086841952,-0.09085220694474785,-0.7254103201963277,0.7127891643571926,0.36280544708929224,0.06347281252344818,-0.6343692263724375,0.02668625695484001,-0.16512238094153242,0.6319409489559309,-0.17395474943054257,-0.5840671518877653,-0.38620461968056474,0.3895714492236946,0.3911241359808709,0.02559127195053729],[0.969689254634869,-0.3419054369272376,0.7222351633530566,-0.7813817910165293,-0.22940891100172783,-0.8779277812490658,0.5997577412271294,0.49361639811167257,-0.49714951528662304,-0.7888504601165239,0.7164444068670599,0.49999254174556607,-0.9715990032019738,-0.13266408611550015,0.9033141179286418,0.4806634667441843,0.024919871688800617],[-0.5782341610538932,-0.05167184442852674,0.6489302398158943,-0.8789203983561996,-0.8524799940326226,-0.12352313276395585,-0.36153372743240214,0.24683428056205867,0.5326771450026,-0.7465045508019187,-0.9132055465304525,-0.8065012045571482,-0.15304041531815088,0.5253149043372141,0.31671208086626423,-0.051072497278051035,0.024826052381428557],[-0.7617774381124309,0.1972074645109639,0.07027251257373178,-0.012992009722164022,0.14301440061147894,-0.1654144953035186,-0.34693141324363974,0.7093504036371306,-0.13713015894417227,-0.6666534231016374,0.18852136628220845,0.13489103364004743,0.15055490360627005,0.12751613296125455,-0.584062314862028,0.7347200980796919,0.026036954706368853],[-0.8598195919114257,-0.7707853398753517,0.7474759127341813,-0.7251673167881093,-0.07970046380364884,-0.43395077071720517,0.6998949177847322,-0.47251140088257804,-0.38186748424207745,0.7298981356558504,-0.35700431985914793,0.714417874814902,0.22737719390933245,-1.0049115499570005,-0.5249553874188468,0.6408200741778745,0.0279031030421454],[0.2519282164293939,0.7146327827085394,-0.48161859657700745,-0.6270280534235531,-0.6437748903802551,0.33863476743687454,-0.7302379345073972,0.30888835496615746,0.46577554873897303,0.4130129504236146,-0.6385479315739803,-0.1100563927815207,-0.4576835740628548,-0.22455642486083238,-0.5775424823204988,-0.14885960689663535,0.029135818649288832],[0.06569198009823074,-0.6475013979504493,0.012303453544316532,-1.048515888609123,-0.27836036447204254,-0.13223550553388003,-0.3388230612861591,0.4610014086618645,-0.5755783512733804,0.25622454356694796,0.07105814395343822,0.9221946010980688,0.28769341440248397,0.5344365048866038,0.3739355724480432,-0.31274526168884936,0.03135601752735238],[0.29177808728617527,-0.9555850040589466,-0.023951926275854175,0.6053779030915338,0.18380468398663954,0.369129667723103,0.08914827301762827,-0.2043303248465852,-0.36529171413258477,0.38530100084965435,0.5533033507782552,0.4339469427180822,-0.7547885539008052,-1.0134552546433775,-0.9065811754481937,0.42061940118478386,0.018862160559049015],[-0.6247671757008728,0.23798584553820237,0.3371889958709453,0.052563102375693734,-1.0686553880738823,-0.9148015913983907,-0.3329617896148866,-0.4807662332190978,0.22341589181954594,0.6573216347165559,-0.6995529691981414,-0.2396986451237861,0.28222008624317374,0.6692153116050998,0.24326830176119824,-0.32853402301839685,0.01610537695290447],[0.7700284178229182,-0.6324365343334561,-0.7341003638958327,-0.06543118683067925,0.5895186551456548,0.4245701622682399,0.8759188437718938,-0.6353782029476741,-0.3052630055024826,0.3498850187683081,0.6728834135426558,0.1801161071488529,0.41693294799215724,0.7704968443069287,-0.5896661048840768,0.8957391074792339,0.017265814149524904],[0.10288586239464848,0.8512190613023433,-0.04751677178411969,0.033370578881406335,0.8223567201638786,0.6638822822703495,0.7043623824837754,0.16480430847595706,0.23170685563893353,0.9251319299560699,0.8089965488197802,-0.2575681581934186,0.6877999490801583,0.06676913420683792,0.21789867631489543,0.5661473805760131,0.015345896781348428],[0.5508429303536391,0.576632261013729,-0.5167720481624195,0.1385666125709578,-0.09778695704672097,-0.6027504196839054,0.6656095785928433,0.6826044285100785,0.6681211722717945,0.25970039103099984,-0.21184111179289622,0.3243542486357731,0.13566527245348314,0.1737783944494965,0.032555723937423224,-0.5943139591649064,0.012115103111088352],[0.1580430106995827,-0.9413447858630295,0.3613607501952591,-0.03425950713476203,0.6306146056811216,0.09613058497330354,-0.7163952152788123,-0.06467715462590766,-0.04230376413661739,-0.9679720456390051,0.6104526542164811,-0.13111534670330022,0.19039709808014926,-0.2147334677924656,-0.7338065576840435,-0.04681996646570123,0.011568393303360973],[-0.5059349217945407,-0.19333780022341845,-1.0007377239791413,0.361171195886025,0.10532026226189703,0.6837935044938045,0.21243754082451455,-0.15245019272817825,-0.07427728025296708,0.9257522316450418,-0.891378364580067,-0.7621235014970392,0.18571376474908832,0.08108769283664624,-0.5666434829808137,-0.432225107910033,0.008737047081450533],[0.260486313728842,0.8390672689202759,0.43583410722423527,-0.14974189863459447,-0.1681761541423621,0.736460254358995,0.9559576557921191,0.8545587964302231,0.7568596432537114,0.4862105709724049,-0.3657080607174065,0.15066629144574192,-0.637376457138496,-0.1450884288162804,0.869525130356824,0.05569062659872848,0.004213176562045457],[0.768635610010771,0.9219984893758987,-0.6641085422553449,-0.15366725716618457,0.5251435594085662,0.5566383187358299,0.8438368340269272,-0.5145525004178478,0.4693505789242547,0.8890876308799329,-0.3998674052537074,-0.1368660282445546,0.05118268960071283,0.015022751151689257,0.21328310608613485,-0.49559400788908464,-0.005347518226886902],[-0.044078240657261736,-0.3005825126655746,0.2909929319132145,0.7657622714637076,-0.6077231587967588,0.24578466435810906,0.7486248309148078,-0.8041520335690026,-0.35618360516750264,-0.6227770152187646,0.2225817642817027,0.2320288972145951,0.2923391700992819,0.11092761433316149,-0.9255156542830237,0.2361414982704916,-0.0029675124079292427],[0.12723487574944037,-0.5344865112853443,-0.9838437923051384,-0.3580058785355511,-1.0099359542404618,0.887889084891426,0.20976586537810835,0.5150614286440836,0.6709379975373934,0.8725555620726249,-0.73014970077373,-0.06373111850562298,-0.08632194508645795,0.513250455271225,0.230438668402643,1.0258099192400125,-0.005921676233606705],[-0.689327237982921,-0.41452540101281576,0.7270863154856775,-0.30060491033762066,0.7591441097937062,0.5458174047517634,-0.05267386790997445,-0.4820734554308706,0.7944719083594359,-0.7398827318976695,0.6649121347207005,0.26000142067769905,0.3741811266166887,0.8112196016435187,-0.6935268229895308,-0.3439304900337153,0.025242250429729548],[-0.6656692985751058,-0.5913007733669751,0.19956807444810618,-0.6688429709593037,-0.7891974723616264,-0.5001205235846203,0.8981732942828157,-1.0036052826169828,-0.7737569998180921,-0.7283144217346205,-0.142412671884464,0.3213000270587323,0.7795701153144268,-0.8294702631480056,0.16625721918460404,-0.7637391794632914,0.025294818238717647],[-0.21250781845883826,-0.010410955616338976,-0.18623417463312206,-0.41276387674452886,-0.5460776028461168,0.872520772109527,0.14608114710347686,-0.6123548359272971,-1.0231343598029248,-0.1193497663730789,0.5496892836648707,0.58349497416415,-0.3425084389436671,0.94522100463556,-0.9926848849775215,0.10630760386380315,0.018030647077310273],[-0.5981062518423919,0.3130063003754663,0.3322452692659075,-0.33045685435196887,0.7369040423759208,0.33743074472904533,-0.28464287536891625,-0.8750477554682953,0.4371307931867519,0.6036162125817439,0.3173297132836534,0.4401130712603283,0.7363462257212864,-0.4501228516962476,0.43356091039328554,-0.3398146623920122,0.016605775577099826],[0.6187413547275316,-0.6322670047225215,0.11163154816201738,-0.8956096187720478,-0.8474730917795174,-0.6411500451763771,-0.4719136255982225,-0.713303241958221,0.07904830135453288,-0.9027605974266832,0.699075908924417,0.9667317487992222,-0.9621367882082249,0.7682284521105148,-0.13811802888603852,-0.42514732166385716,0.01719092038480364],[0.1740224096803098,-0.6695698846996211,0.10508298297872376,-0.059571616616712716,0.5664634295715241,0.9032920368946674,0.1000479689304415,0.16730778179721198,0.3536937890889725,-0.582322905859031,-0.5465926039086506,0.3396579962007623,-0.002095773162828176,-1.0460542462283426,0.7792587418776079,-0.2363898991586489,0.02635286843975472],[-0.5885716116002628,0.039575975578986074,-0.25213828110129416,-0.39194107523440985,0.3017993063994194,0.35302312013503817,-0.07272579435254004,-0.46436379534665945,0.3053581870513765,-0.3633744492359153,-0.6377661056940467,0.5937354350782933,-0.5558013647467754,0.2933157453162861,-1.0508107882586104,0.7603976008299987,0.026006126825648825],[0.704822328735526,0.19833043007595583,-0.38510924912532973,0.33532171819420525,-0.004677495465509932,0.7705462604635459,-0.48254612111658335,-0.5109272208539534,-0.9440842944019949,0.004247142616911748,0.7261916000084587,0.30035272734521923,0.021070507574842447,0.5842856294495311,0.8306261138334187,0.5392068401893725,0.025023900641093173],[-0.3120811103433748,-0.28196057618841885,-0.9361522475674765,-0.9551791860287299,-1.0426687974856015,0.07504450884409662,-0.42144901935154583,0.36850955443690475,0.5484301261407377,-0.010294206836282306,-0.10252036142381661,-0.7640121212898032,-0.6562638225346024,-0.05080462915884473,0.7582818118958158,-0.8174079690536606,0.02529916328850161],[-0.8311780094314264,-0.5167894839254562,0.3694854164866739,0.21425538015363874,-0.8571922511155797,1.0286702566309078,0.7517885055023282,-0.7089792189613959,-0.13982039965267232,0.47757217250141887,0.5050505289955962,-0.9056179608126458,0.09668565630467685,0.4635086322515314,0.40886180284824697,0.9429230945753218,0.025556770875344158],[-0.8071917592581324,0.5837635452068497,0.8180707401894516,-0.8270287964232844,-0.49675463273368886,-0.41367253338506493,0.6466208444301735,-0.8473305538563972,0.41325236647058683,-0.46841298664553066,-0.6851067350873687,0.9120195630293024,0.43870165600687355,-0.8105715881006762,0.882542576248865,0.7453861618463712,0.025452259915368813],[-0.31692061262061844,0.3980246837096731,-0.15682340112308096,-0.18986365537429484,0.2598516116690553,-0.24511139688552996,0.239153837260473,-0.7791723485243439,-0.8999157651426197,-0.2665218752892206,-0.7342497401390683,0.36356075057423404,-0.8453030384129068,0.7419906902454104,0.07375164753570322,-0.5336146137100382,0.023877250388327498],[0.3366510995368712,0.07719482801602032,-0.46174900359257426,0.812135970291487,0.4852201238757383,-0.6465162202673006,-0.8748209191277984,-0.023871317301277464,-0.2678983874995797,-0.5840578098432866,-0.11720859100079377,-0.5946983272008108,-0.4606346477427523,-0.19411146176333863,-1.0801314572261567,0.35322041731180337,0.023209056796234313],[-0.7475562373863329,-0.05080300646403684,-0.928638074062357,0.4935537731956865,0.5202399150818032,0.4827729847902269,0.8707938165263864,0.6868703070243563,-0.9423085739705265,-0.9158315770730452,0.033083704606069596,-0.562415984462869,0.7625718872186562,-0.8510450017556004,-0.30595096391875715,0.2559239299366915,0.023624716685016634],[0.27681886184812465,0.4308146150487939,-0.018640080942461387,-0.24929742180724687,0.5967991103220779,0.273408031850935,0.8927870366017815,-0.6120420514694498,0.5013160486121155,-0.27277529599990763,-0.24999060697722192,-0.7200720444752537,0.5213591300932938,-0.2914373308085158,0.4317202478275047,0.9402994609592973,0.03414863277326654],[0.6985432178240936,0.7001524219421802,0.33163797150943136,0.1979027921914038,-0.013753896593992756,0.36759241647310226,0.055862217911002716,0.09184166406989139,0.2586762098550929,-0.9674615651617094,0.5020642455531019,0.2876060449645311,-0.8098002874707853,-0.7813714380892649,-0.643274731005314,0.6388179330998144,0.026133662616021746],[0.6885624777938064,0.5048238376956428,-0.7266810872412113,0.24489811242697587,-0.4208874470303416,-0.677397422171044,0.8277396560634993,-0.8358979717268881,-0.12921184496680338,-0.492211767246258,-0.6258114567123086,-0.34058637042362194,0.22232322036802452,0.814384335550116,-0.5846704493958219,0.07648851988249261,0.011353468641543627],[0.5569254670091557,0.8945566320629563,-0.8047866667070774,-0.509546985690698,0.06779185041754666,0.377524203822639,0.7978702731964404,-0.5545578418979071,0.257583713171691,0.2125219531264169,0.619374140380548,0.7049186802845104,0.4777224436768497,-1.0400177743057943,0.13897311993832334,0.27706215491972297,0.01003441791341745],[0.5275276617740876,0.5473823588484921,-0.5046887278678859,-0.9394110665786033,0.685921108085326,-0.5733529608554087,-0.586366532060997,-0.28896768897470326,-0.19862809229908168,-0.30293825136062746,0.2388385111398761,-0.7206632993297327,-0.3975980539006538,0.6357803498371094,0.15651340138453854,-0.7567577734738634,0.009032970042809216],[0.6115779595503481,0.48613865107224585,-0.2591438787396286,-0.3392421848226122,-0.2828580912519962,-0.38318148331061663,0.2761983198339767,-0.8718090803268695,0.7207314411747331,-0.20304434144047695,0.71956741162992,0.43316696763926726,-0.1384496451334932,-0.16754415175481976,-0.478570533658958,-0.5191192811884423,0.006559709555497073],[-0.5078575888219558,0.14125724387754476,-0.4303691756222673,-0.8094587576092641,0.4389295950785301,0.029830160877378074,0.056259084773033076,-0.6318642607704604,0.6490765124199076,-0.7999194193044616,-0.4464469049395821,-0.5412026608159921,-1.0549766481448277,0.6844970739041005,-0.46623431239413615,0.6496726911816225,0.006247945510524265],[0.3009814402558755,0.37217247451307395,-0.6984771177390255,-0.9725624226730387,0.8736055250405719,0.6156092980143804,-0.6930511963237161,0.6865455301761084,-0.6550623063749578,0.9182994731995933,0.05351180236750291,0.4328944550998171,-0.13052408849649533,0.5404088519291489,0.7702881160134988,0.5024265260445924,0.007853678410747812],[-0.18946530632184133,-0.6003428133485404,0.6347795704883283,-0.754200151787393,0.3044080695522349,-0.2996962746769248,-0.23843778993854528,0.030110867275775326,-0.12654518602909443,0.21350815490685449,0.42199915508743646,0.016233947437984612,-0.001039235630138709,-1.1052020964735287,-0.47472302384323495,-0.5164899108304793,0.008844929933704391],[0.386740575258965,-0.09337483764730165,-0.5586334125639053,0.2531814475369204,-0.609762839607943,-0.2599434613033651,0.08249618203139313,-0.18416942153363045,-0.3268505214109163,-0.9579904608663538,-0.8119910303150748,0.7065288129605866,0.669665379990741,0.8638799314103723,0.02499726979319477,-0.3166325561760851,0.008000057294696983],[-0.6397273138350469,-0.26730619632656,-0.16562461265834885,0.6360054882901971,0.31466463308981074,0.5977553336920791,-0.16732129891309067,-0.7591398790191907,-0.18921696702699317,-0.8255088084706292,0.16188517114508527,1.0137865333824965,-0.8552745558245509,0.6318930876256604,-0.711287118246152,0.7330047027569723,0.008834595278627646],[-0.3736259915743144,-0.21789453183978583,-0.13609425273092365,-0.00992099418314891,0.4459184259757064,0.9642492999669412,0.9709273059644985,-0.855953481813,-1.0152089206786468,-0.9203818964007097,0.7393281095215565,0.857820413695255,-0.9763470079349938,-0.2708743886514399,-0.665970255977572,-0.43031841692959966,-0.0070848187925994675],[0.5567811511255714,0.23397436828542517,-0.8967176013353985,-0.13766824269537892,-0.2270506907995832,-0.03781599453291517,0.23270636405552153,0.6465986942001375,0.029430723562232898,-0.5972454148685508,0.540291915034257,0.3829473654052681,-0.9144961358872881,0.8210075232123752,-0.0830893212267666,-0.12336639615212835,-0.007716411449418077],[-0.28352938465938404,0.8396616182065887,0.7829037270363006,-0.8468862171206972,0.7584814712083163,0.8028104480375267,-0.5926727617130649,0.8213164539086149,0.7602311531705178,-0.7954220921765974,0.571715566688557,0.9673162745143283,-0.04341485435445448,-1.0759284973258532,-0.6698899209980574,-0.3320091977428041,-0.0039515442393066175],[0.2550356468442063,-0.4835500589255405,0.439717946215111,-0.9620307797889518,0.39768468185871786,-0.25441637375053916,0.7608036576102809,-0.4597689938960612,0.008300302686909409,0.3675504686368655,0.8511574757676731,0.265727234960487,0.2171148593129579,-0.18774545137167126,-1.0536662130027157,1.081010597298643,0.02901797202513116],[-0.27254503279577247,0.8484292486480348,-0.8660822633109732,-0.47990111701532023,0.5534666943830131,-0.37894177791693245,-0.6028555773924154,0.43254691532502165,-0.3332295177694748,-0.9698688679724857,0.3280801871535328,0.816808761259925,-1.0374252383513516,0.7269469753906914,-0.7223728735093019,0.365962351096016,0.020523572893581428],[-0.7035394961496533,0.8533520334175326,0.2788840760316889,0.7368224958203419,-0.4893751713386005,0.14628710583081897,-0.6641646424598973,0.6591354308215677,-0.6466150338267665,-0.7723449782614362,-0.17613204980947536,0.7941156750397875,0.025656770120674518,-0.13635304818362629,0.6327165884478316,0.8801239353693993,0.01583036389132422],[-0.22666141634185866,0.9199375132964033,-0.7265307697398119,-0.635686949040715,-0.5488065248660263,-0.2256417364711764,0.8709622704174464,0.2564685036808033,-0.36018591599700545,0.2339536785233307,-0.04932278580337227,-0.18063520044294518,-0.06891075015236839,0.3130480647144554,-1.0383208796555006,0.3564295434673196,0.015359386185622758],[0.2389395233425029,0.3778589760013514,-0.02398043256695725,0.7782516289142205,-0.5696062104682099,0.39974183401912905,0.5009506063332353,-0.06844393054153473,0.4805545687387204,-0.6563540482741818,-0.43450663850966503,-0.26781821644105086,0.19270204548364203,-0.7373072535673986,-0.5950457187671429,-0.9017445159454855,0.019239933453627293],[-0.723772536834596,-0.17927321115390718,-0.6247236374411953,-0.22988415319705316,0.4969323398211654,-0.6803803431505011,-0.9203282104523156,-0.7109133020694557,0.3868634770671842,0.02234694652096582,-0.038410492108207385,-0.42875305562660687,-0.6373127645859707,0.004858498135128783,0.7046221686745568,0.74204510015493,0.02568489059057501],[-0.5291298159999447,-0.18574795142856487,0.4484711862657204,-0.04789105198572203,-0.8706541397248206,-0.00042825127994582123,0.914019128940607,0.757243099753479,0.19142253021719155,-0.5030833739571283,-0.6418555748234858,-0.36320356548468746,-0.18221448815863941,-0.1170769881818764,-0.49512407032631317,0.22661209243700892,0.025384111184794403],[0.7518639693743847,0.01973190604494182,0.9244757031163869,0.3041635594668267,0.23553799390510274,1.0539661372816922,0.5954583859784783,-0.22431639703663,-0.051277070826113255,-0.4019618050862224,0.2135401348964575,0.5635445948580505,0.6865431161931445,0.06261732819011573,0.07221123416738043,-0.7603029330234835,0.02477472597961885],[0.9017705413986792,-0.34847992598307725,0.11271683194015975,-0.9067477505077024,0.5251653888866075,0.13449634115233858,0.8407378093806565,-0.1815011746391716,0.4942459956680764,-0.7587081127957174,0.36562375222922805,-0.45627106172654674,0.15274195062726567,-0.9761386552309798,0.5491551680186747,0.010092849230510226,0.02519059193674113],[0.04545777898535963,0.6001184349696865,-0.8139861132885324,-0.6724212260086274,0.5104144361551196,0.9586922606053359,0.13119786851171808,-0.44723299942680106,-0.5735554864018616,-0.6335345423956965,-0.9816840048904415,-0.6970635280078993,0.38656246339363204,0.23732864246110966,-0.6534238333114355,0.4012243162985443,0.024998313865902545],[0.8792986124191893,0.6047168077922834,0.3606470701646708,0.41101689841387007,-0.43145786752349186,0.39294273017638004,-0.6593230399557888,-0.8481175876637336,0.5052813002669979,0.688871547705019,-0.38285772377764904,-0.1996319623425751,0.6553442577510608,-0.716176534525273,0.6214397918669564,-0.2059860912228049,0.02487961025983214],[0.8654323508336359,0.9905322394576178,0.033182180411824594,0.355846630035688,0.7683992651253415,-0.6645802216468867,-0.9444839243558625,-0.7241595181302194,-0.4455186767523452,-0.9521651903338639,-0.4931160139286348,-0.8848233213262711,0.22244958133864118,-0.07875845048049948,0.3321657785454174,0.19633836252730946,0.02268654059070967],[-0.46573124801075605,-0.10743590984753268,-0.46647871570094857,0.08621131808265206,-0.8847636015098184,0.046051622499147495,0.3846732400777346,0.6875036492247578,-0.41647130775441665,0.9656169365248303,-0.5308550792707889,-0.5317722459505666,-0.8257496241626779,-0.8495246871968584,0.0895453128847714,-0.8474336577100418,0.031003652029306553],[-0.8348460531955799,-0.6925090102329506,0.4418815559129406,0.9201868311665145,-0.52707071973343,0.6536733708409435,-0.6575118983820664,0.08977563108748558,0.5283490052857871,-0.19306768344732184,0.17119882492370564,-0.019951285280265865,0.6879231764139729,-0.4373229921863393,-0.9925343633631202,-0.6378933775716108,0.02683823994781378],[0.4944611282527731,-0.2677505520202286,0.36293976507720704,0.5968020313411472,0.6009760544432878,-0.09448425984058989,0.438471704962945,-0.7475686697981789,-0.31821469354042936,0.8401972789881904,-0.3327605783176735,0.10052090334150028,-1.015954274428066,0.7849905549588452,0.09246602079634848,-0.6577738740868202,0.04347611267312649],[-0.864784340311207,-0.29249527929003094,-0.8753141539909127,-0.4035894661772822,-0.8215680905603615,-0.3710447135421079,0.8299922759305542,0.7708296648932884,0.2577717837892168,-0.06897748558703344,-0.3029074140050294,0.20661907332755336,0.5041873447592121,-0.296673989106796,0.41184225355880283,0.21816742433877193,0.035551825389182716],[0.480900999848219,-0.08468248515258021,-0.33830527176473113,0.028707289366304827,0.6410246458860892,-0.75509287098641,0.46492811462212585,-0.5962875515678588,-1.0728637819283826,-0.9667406835750241,0.4110319569019186,-0.8193264720303995,0.8403647596710457,-0.5089856672032003,-0.6947440851594691,-0.8226372494278532,0.0017576971258901899],[0.2670443389876953,-0.44086012577649575,-0.3679969834588034,0.3792772395051151,0.029950058973645253,-0.3909875553905847,0.35661327350265826,-0.6067105250160002,0.3870815695155108,-1.055355112087256,0.47618056227015315,0.15411349874770233,-0.29803109730289984,-0.14329868523590708,-0.8856582362491158,-0.6682384129187575,-0.004865832798900238],[0.8560002827346327,-0.10700220352139382,0.30100003499368533,0.44004576818393765,-0.005594734841228129,-0.10434691828511461,1.0473280317200155,0.0468210391386272,-0.21492164955677973,0.35730051796961254,0.10343148253336973,-0.10507585090351032,-1.027403894106571,0.3801308539544079,-0.16421877322564898,0.33858287166343864,-0.011437938130721494],[-0.9393519423619621,0.5909409084810093,-0.3025795071514272,0.049095539471425885,-0.9489692123595578,-0.8291797834975896,0.6235717040233533,0.5712433840167624,-1.017787659474444,0.0005693430004173133,-0.37527333695550646,-0.06164231052152552,-1.015239624322826,-0.29799251456492337,0.08549596381752594,0.9350866853880992,-0.010748075738969824],[0.7461931303824265,-0.502391985904459,0.3919073665965918,-0.2660512376664899,0.24711271007713487,0.5102078219682564,0.945183956172889,-0.8293404217796433,-0.22006150564840252,-0.04726311303903178,-0.02405953363372253,-0.03476511369730758,-0.5373627871389661,0.7646874358488654,-0.8311180016055157,-0.38262027168988555,0.013232604226415678],[0.49846011376868016,-0.048779651464779354,0.6747866230572643,0.5425313449022421,-0.03070311860219146,0.36515984275860797,0.277757918633326,0.08061103559851966,-0.7074344499070344,0.7835267402738587,0.944673166503254,-0.5178201294426465,-0.3809376685830594,-0.04450512051567166,-0.7031126244709439,-0.5104356023079273,0.015015947293873113],[0.5851323863422184,0.7465265046901417,0.18321235981649012,-0.17790647027128348,0.08822858074416881,0.17061734925305622,0.1414361105057127,0.9540527262347479,-0.8946650493018551,-0.997454517099638,-0.13562147389564574,-0.26511154997643815,0.8845164295386327,-0.0815788874519184,0.226337638320062,0.5461331389072204,0.006885927122466267],[0.9862207611958593,-0.020497340337080575,0.010955844957582173,-0.05420890679342089,-0.824159621913325,-0.6792380483299345,-0.8453048574486298,-0.4764147760375675,-0.9092667927457458,-1.0043294357869539,-0.04427820157193786,-0.13278494585884712,0.06272441952916626,0.12722326495503422,0.19812362435084105,-0.17960462860690732,0.008719366475163977],[-0.02907987731931727,-0.55900600688776525,0.5375539571093829,-0.9586819463263451,0.4859151276641514,-0.2893285363813176,-0.8464233111030727,0.6067304173790272,-0.3275780734834902,-0.06549719954535586,-0.757955816603063,-0.2684389628945975,0.955566117907596,0.39909934642243006,-0.9300606296965213,1.121066094175271,0.007780239438786986],[-0.5400323874969186,0.15272170545616673,-0.05421886663367198,-0.39697789289394503,0.36746586913489215,0.13424170645008332,0.29766686972294815,0.46657010938406257,0.05876718786900896,-0.8094051094943283,-0.7667989413309113,-0.6973685676504171,0.4127099814415052,0.38544732428883577,-0.09246302815583889,-0.4470595730155205,0.0037626145035874626],[0.9261842108919212,-0.48184829500311693,-0.5051940213031758,0.3846006765496845,0.14302791850665347,-0.30349490836556814,0.13210590920011056,0.8710650118488898,0.4924651542279284,0.3829404444269096,-0.5143578705005653,0.6134067681852873,-0.15020541587853486,-0.44914183939151,0.537668114138776,0.4548327011590656,-0.004678701316570639],[0.8130150157087552,-0.44912293341449255,-1.0209585923676752,0.1571455154858923,0.6045516265383022,0.3469433656991098,-0.24626502425379318,-0.2639865599871937,0.38155478458340825,0.012422627987941479,-0.06042673857860168,-0.04449449036598758,-0.5386608757676403,0.8494719716564932,0.32808513987755433,-0.4800094680197479,-0.0003478537468955538],[-0.529509632629114,0.8593257685160656,0.8194426642604664,0.6138738564252131,-0.5218276202608008,0.04662132222584667,0.5819678790526288,-0.9282586848076989,-0.746436195822264,-0.9030029628104413,0.6279979452288138,0.2719874147797629,-0.2961813865473925,0.16696064586682796,-0.4484724354673989,-0.3487337749519012,0.010898433778315342],[0.8190573257482878,-0.38501625580295706,0.724219586409923,0.4361652583621279,0.8755113423753598,-0.4166835024930574,-0.7384356917768521,0.3569419176743413,0.41913962838163565,0.20091753521717662,-0.7424016802278756,-0.936534028542512,0.09818889638534876,0.6175560425041637,-0.6132445401112683,0.732562097137543,0.01985068420962944],[0.5771808352215126,-0.6617354027287956,0.21836197072925695,-0.9322110010447765,0.2837074744292849,-0.08838709981144575,-0.7599081330719236,0.6501347033766275,-0.16841495001356557,0.8679916866434686,-0.1611306046589572,0.7392110488098108,0.08130349214997899,0.4602243652467255,-0.8354888782543761,0.04155194055197705,0.014686496859901785],[-0.8384094628684267,-0.9668980339390494,-0.6326247788559552,-0.9488957880939934,-0.5055010101996061,-0.26545540179487515,0.5160696772383858,-0.9488661318437602,0.772112676672918,0.7788841866659597,-1.0031451110576621,0.0824693122456452,0.4171217890241858,-0.5317691339647941,-0.4165076969593538,0.12385527991976937,0.01369850459345125],[-0.12956838082967714,0.9260820807595848,0.1117552299846005,-0.8398142915160808,-0.28109567776291905,0.4339870624920719,0.9063956538326814,0.6836535111839737,0.16366554560854601,-0.2599324150350373,0.28129679666789265,-0.5411298419214863,-0.7857094655162936,0.5341593575169364,0.2909999451169939,-0.48638768556161066,0.019203042115795967],[0.6422575365948759,0.7555644146860689,-0.5009564349163095,-0.8357291814996198,-0.616606530992408,-0.9126592496738738,-0.71096590191702,-0.7121783403210289,0.7235851561835251,-0.7351560766526528,0.23083855192744632,0.3657921337613821,-0.2350079707498566,0.8900681627215693,-0.7255924641124656,0.7742162572642809,0.0232717153467095],[0.9041394479126388,0.49189127973907465,0.8851402311508568,-0.35565538535564517,-0.1734203691729534,0.8406724633308504,-0.6289825568612323,-0.8934547623797542,-0.5368597396411595,0.6660107450227016,-0.5524228568256302,-0.09197005858966766,0.2602025051345302,0.8424960330771362,0.20237811618344828,0.011169387008002896,0.024272548002723486],[0.6591373959831601,0.8198736642355179,0.1237473334380766,-0.928193709429053,0.7930577257362332,0.48943339245095185,-0.6348008996238951,0.6286823745931349,0.6641195402199573,0.6448463871570258,-0.1031387221214128,-0.3456545561471757,0.6031317354087143,0.2961650282019236,-0.7895134413159798,0.5988122265084895,0.024720829085881538],[-0.17997745851985059,-0.7914492765360358,-0.8264941945244173,0.6769579530951059,0.9243747626724296,-0.30451613357796337,0.8052510185695579,-0.5322143060429128,-0.7341172409730735,-0.7004426140827278,0.3172761449078681,0.7362898667059287,-0.8566438508128411,-0.353089528568132,-0.44990248500139146,0.9126270040002886,0.0267178264393597],[-0.5311174604720983,0.8109561763179497,0.875113095435469,-0.7145913955441507,0.15398306020722546,-0.5600106886101698,0.9705288125501618,-0.11906299748623715,-1.024407995082956,-0.12622482807809554,0.46779895058340376,0.7695593136949188,-0.8761773916995929,0.788049414218042,0.1838238618999603,0.05182106097640827,0.027951288912501353],[0.9941047532456484,0.5238150648261044,-0.37419986201947386,0.923094276247872,-0.9441553300143873,-0.36903456582410177,-0.49870856370007083,-0.6294908571697718,-0.2044480933812772,0.7918010267826285,-0.9398961232260836,0.09811641404024059,-0.6227422467180693,-0.32800902133038956,-0.16898533625899753,-0.06793964440962882,0.03589501285255752],[-0.5121898686104407,-0.12042403117311498,0.14158813824136834,0.6484622324426058,0.1700207556112507,0.2767704142523805,-0.359826646726173,0.19323212003081103,-0.9890495755795176,-0.9251476441946721,-0.08977818973021799,-0.6923923288158172,0.7848685378531873,-0.8470297637389367,0.19515205021650198,0.8877188711541906,0.04352170933653876],[0.6820799008394032,1.0008795648990023,0.7338583571584641,0.7327211277093001,-0.509071233891259,-0.6033859280063693,-0.759967153794429,0.3445667223893824,-0.9663915470410996,-0.7774502206146198,-0.6003467608481621,-0.38906459290549006,-0.1522647071980858,0.3054508185627727,0.39395769728506774,0.4660384852909228,0.047624473489852916],[-0.7715671704018335,-0.3063150682559144,0.01865578835574739,0.3802885283061639,0.8235961483878672,0.8106283313473112,-0.26569266686438237,0.8926617635219631,0.6977015518821149,0.5549229068714542,-0.8388982283663395,0.7125470495138791,0.6797974686865909,0.4048505828896655,0.4514397074456538,0.534408457035139,0.06058423874295199],[0.4618551067364658,0.29293495595553626,0.1404599569465209,0.9196407302922502,0.5610647470943596,0.5184668443848854,0.4267617648061639,0.666595745550742,0.5718639734336423,0.7366400676047385,-0.7933296850630097,-0.33240266397020224,0.04936513608712393,0.6114892119331021,-1.024083385681548,0.4688978785816498,0.052538827676687556],[-0.6292702740194603,0.09391063293235892,-0.2915337926779869,-0.8430162775995312,-0.22970001054206335,0.5777640315821855,-0.7763131805824619,-0.4477910348100154,-0.025834723542236544,-0.7216105917751927,-0.8332151324185243,-0.07737609388041154,0.7147800375047038,0.5879285523660007,-0.7497792689208264,0.390290678518411,0.021549962471639223],[-0.008465651892342496,0.5005394587733046,0.16358152164490095,-0.49731205897048775,-0.11293063933624801,-0.2836341248530744,-0.6515828609179205,-0.4320418578069849,-0.6869286854468527,-0.5589829154241257,0.09630907435477505,0.6381808102169352,-0.8917616617449328,0.044891239122641945,-0.12613226275981854,-0.33295339999676243,0.00894428483935971],[-0.7337995989871209,0.6925620147228735,-0.292123732735032,-0.024998223832195778,0.15565772943712577,0.05961160778155858,0.7102010363668646,-0.7479996811047627,0.20259075605743304,0.766566794332871,0.015349617203506846,0.18476181086580953,0.4393761740834959,0.26180401678839144,-0.6731033412387761,-0.40739206617695034,0.010978761269422327],[-0.10195940318608632,0.5984590489200631,0.00858750637852074,0.7264752547197533,-0.8064697787862071,0.4853193479108783,-0.5342994571333944,-0.38547552645001026,0.8002702621809868,0.46014862566958004,-0.8856359112938341,-0.8329639617619025,-0.3684000448809504,-0.012433186102061284,-0.3811198365658815,0.0227007245668648,0.00719655442439901],[-0.16410579400328262,0.4308925840109835,-1.0401484468387874,-1.0538065989588252,-0.6344300737260085,0.783207354460501,-0.6297136276682104,0.6842416773069995,0.4210988044566391,0.3044296476551523,-0.25876129866767833,0.11530044693412662,-0.292534204307569,0.056776340626544484,0.5200930520820122,0.7100521015922527,0.008306674626521435],[-0.1881654603351678,-0.3650573660903175,0.42670647669372236,-0.036965096748619336,-1.0043206310625734,0.9871770769662994,0.7715235843572719,0.9276072544608318,0.3350560489453066,0.8078076481989545,-1.0310165750555793,-0.7847149842951513,-0.07066271807360858,-0.45842544687482617,0.09673084271724777,0.8682218287676375,0.007179338142314727],[-0.8732143844818763,0.1477254654399349,0.8058680682887843,-0.5438447369093837,-0.2202362661769116,-0.7384930047386543,-0.6884504812521128,-0.6626396459881422,0.4891200201726551,-0.03288276044115724,0.3487892749904144,-0.6015697109947258,-0.8453326190372362,-0.2206565981187263,0.977155007406194,0.09024762839933241,0.008199456948017473],[0.566060996412328,0.5023523336141501,-0.9644004230655949,0.5276487785770375,0.311737382703108,0.8619033966781956,0.5875553875484066,-0.24094164646749258,0.6438028376688746,0.46567675051536156,-0.11119619456963824,-0.25867536479238523,-0.8696513159846051,0.8716613996463076,-0.5424032743660239,-0.5730440494212442,0.018626817721704544],[0.13191748276907833,-0.6282545277958779,-0.18714991754736693,0.8780335766847883,-0.5353769145391951,0.16208679049741295,-0.6713284977278956,-0.9960974223773826,-0.9024110476018768,0.5775819185663765,-0.654460880654664,-0.5792681894143503,-0.5105017052616609,-0.7990329221676399,0.34187022854915006,-0.7703492962014726,0.038023166343761655],[0.7894217054310355,0.4831206863012548,0.6672799203864673,0.06853306084333434,0.19631340910527495,0.29103972541392337,0.9585043012239405,-0.15060592410717538,-0.29919128659364896,-0.22692120944395605,0.5147455799413811,-0.015214298361580031,-0.23154703542086522,-1.1035038619958581,0.21139468472059028,1.0548233672770693,0.02234824838449305],[-0.6415633259534665,-0.8970670520245155,0.8310071291238121,-0.21982235292602645,0.1509406067954717,-0.7806732304562043,-0.059139698651239365,0.2690274426538565,0.6815435513400557,0.22315992773463053,0.6110767628557717,-0.6741447832757179,0.5345525518382651,-0.09484970618471321,-0.6319202346584839,0.4630630865170062,0.024619796862202472],[-0.5321123644393461,-0.9031533198740936,-0.567184674920525,0.620118311113508,0.28774610148864604,-0.525012282825355,-0.37578947963406434,-0.9793917473003309,0.1026581029440274,-0.8862336145691989,-0.08522771042991063,1.0065731826403645,-0.8959287288070903,-0.8758180560696969,0.8787320420816621,-0.40675486602779304,0.006915988764606244],[-0.6839695012587912,0.7671362507693369,0.30886342710935466,0.42950187320890376,0.8983045713740514,-0.6562466904701199,-0.16799915245901467,0.649449812297236,0.39344401868319917,-0.581755872125117,0.9156181290723321,0.07724610199323709,0.4023137162776959,-0.720853112403424,-0.6370405287092421,1.0048451491172319,0.0027529191389626933],[-0.523550310881599,-0.13800465661491348,0.569104595099419,0.7395679439216746,0.27166785095941154,-0.6937451801640019,0.8774960369473154,-0.5655039891449525,-0.7532210846926486,-0.21371226115139313,-0.5921499049226551,-0.495073941154937,-0.02344472157663069,-0.7263196469209741,-0.05777020378672157,0.4496020525254029,0.005789089592872285],[-0.8278966768774654,-0.6647771711218528,-0.20544714421706353,-0.9486724037756081,-0.3994610032402372,0.7369762557860352,0.8218432505477584,-0.9399545529796012,-0.9904916982695992,0.7173987043525902,0.08670374890301841,0.6237268184488658,-0.9369828128103221,0.4590093945892565,0.43272195309431793,-0.2971802855582256,0.0125657475458822],[-0.5243082416822706,0.12218740417160585,-0.6546217778980187,0.7350367762411852,0.3258142220280008,-0.6674442020223385,-0.6896544585629958,0.664226965396923,-0.015527799733746937,-0.3188948379270628,-0.8910190166940853,-0.8417011151374764,0.027359994579999845,0.09161947430694348,0.37865845265490355,0.35502277565943496,0.01446956893348286],[0.5513308372121914,-0.6823179480194241,0.3255937892852573,-0.8746941947904185,0.9328357851289125,0.24695666838030433,-0.6694512559579354,-0.9344685437124072,-0.15560688671951545,0.3951175289379313,0.5508471718047235,0.10011220576137146,-0.06960971985228115,0.06191687843871101,0.572700228308834,0.5302506004831394,0.013669567669067958],[-0.7396698676700098,-0.9688931545636903,0.20534154540399008,0.5618904785370508,-0.7637881604602644,0.5992685891539852,0.3551185134100145,0.33051050312074276,-0.8385939125671303,0.4561003743807865,0.35099334631521933,0.3968451823459388,-0.4140331253617018,-0.17449318088382962,-0.4642658290487608,-0.7463377999278652,0.023229239139550478],[0.18977541625023608,0.938449665644963,-0.6524656993215947,0.11325653285806894,0.0723378478894506,-0.2329097724163245,0.2506355810231304,-0.9815428509410089,-0.9553906359614516,-0.19315037621119888,-0.03727073823950382,0.1860892856611773,0.8846512070911638,-0.37013016645982255,-0.47001481820214397,-0.7440244590284633,0.023071786008320227],[-0.27877948772105365,0.8175494349523869,0.8069704999928844,-0.0319880887122766,0.31208840012114153,0.22338909126711584,-0.6497964092648942,0.5567639117871558,-0.38377072552700725,0.7185739398388701,-0.16404817772478536,0.385344901038195,-0.4279889718821457,0.44871558339860285,0.4625526496144193,0.8408194302421198,0.02222102155790334],[0.4531491992311316,0.9231542924206296,-0.06261244308486845,-0.4585828348056053,-0.4294237279154793,-0.7048055816000913,-0.41160302963379114,-0.32048189705231156,0.019523571352553518,0.5697844075110033,0.7688403500230341,0.10724549146428741,-0.7554967159889128,-0.631946398181242,0.18959465145633492,0.024011054809024088,0.024295158766696776],[-0.7468420638455273,0.11673209216983278,-1.035558895048758,0.5836195887257739,-0.76982685298486,-0.5370608582094503,0.18936601024831828,-0.14297780825881837,-0.9120583867670097,-0.9691338019545275,-0.8197931641091158,-0.14269011374574264,0.4674045055194663,0.7084422078384455,-0.457292794051706,0.031488740508777556,0.027911897851815387],[0.6808189412955283,0.6086853675989149,0.4921627069517242,-0.7255770342543019,0.775800979682583,-0.7563216337765473,0.004435025721375394,-0.17112175722229525,0.7108896761861008,-0.22110419820676577,0.8777942454583444,-0.8545367100050729,0.12471610025626931,0.12245891106417858,0.02618727442110007,0.47066194713956483,0.028715590085391644],[-0.7242521362957788,0.11483591956765041,-0.024755585776697023,-0.46521461716671697,0.44084977850392576,-0.6770550706466132,0.455433517714485,0.5546700530453765,-0.7834761969806326,0.6300716929814347,-0.639075835179141,0.8752871556595353,0.31400919940825567,-0.06660337722155951,-0.2624743061946881,0.08795887895044455,0.04833567263799492],[-0.40603968752829345,-0.6384194049620646,0.26672489044896885,-0.5979243886019036,-0.5090345772924632,-0.5762588654659345,0.300542269204799,-0.7489279388943998,0.05496437537338732,0.14985408913373205,-0.6807524459065147,-0.6477812090414595,-0.7571092279613304,0.3768310478694357,0.6929596770979055,-0.34755613404864605,0.05218773301408191],[-0.44425402276416026,-0.20731232829725343,0.0554245531504457,-0.9985308487067218,0.01059360615780202,-0.33554880459711306,0.6841143670407615,0.2965851944734302,-0.8720238600176743,-1.0174800706366398,0.11002872045311882,0.6223213626648714,-0.09637487622499899,0.8767806787762457,-0.4136996823018141,0.6742953158693797,0.06113718667667331],[-0.6707668396042505,0.9507736131943844,0.9131652433688532,-0.20935279485144145,-0.7285629584949064,0.3681816391120243,0.20111504350342527,0.39294623933173545,-0.6529427250277671,0.4342439838071821,0.7144746552515007,-0.18298403802739033,-0.17943399182814251,0.40565428636565415,0.3151722672108443,0.573003984118465,0.06029965851572856],[-0.6958753148540273,-0.5715248985309406,0.4178461860515301,0.27159254597749366,0.002936752145637229,0.2397074013652874,-0.2710419072121222,0.21834206827996624,0.04802306322485658,0.72575432766951,-0.21718330202869865,-0.7874917394593675,0.6409749974420321,0.3373445539063581,0.6800603979369467,-0.8237657824106285,0.021604825089008625],[0.41275645765138624,0.6514901319718819,-0.1746294781314992,0.6307966924390793,-0.06832663119675639,-0.8535168870289629,0.19981335560163918,0.3900467482171181,0.4260389075993232,-0.21944967078180794,-0.9092181553751617,-0.47788602869804486,-0.7569461720347138,0.34997428191679103,0.8515357185572102,-0.26148238077656627,0.012992137706663458],[0.9386155549150963,0.3436764951665311,0.8973715403525536,-0.11084772706946558,-0.5051624449024488,-0.26030893882005846,-0.7258785315345888,0.6649942630640877,-0.6639666140887145,-0.06411002437671069,0.7148813488111693,-0.7462196915334034,-0.6417162561512076,0.3834761784460329,-0.827624774707574,0.9479987826135247,0.009603962819231234],[0.2117008144090422,0.0890079630061794,0.4876584954454202,-0.905216920376113,0.13436521855218633,-0.19804411379073697,0.6333065506652309,-0.309900366265475,0.4522449479948456,0.603990582240068,0.03135609086618128,0.9603841458602436,0.06688870037423138,-0.09755022201460654,-0.5248888563576329,0.16007287408602033,0.005765603326895197],[-0.573812019812787,-0.5297558922401875,-1.0048181424590001,-0.13908081660357696,0.10662113464613317,-0.6234728276938712,-0.30481747089075933,0.5384113584164829,0.20519062176956054,-0.6737759016261984,0.6375376124163057,0.7893952121864752,0.8274358642429657,0.8171365217215074,0.5190571990703445,0.18407146553545042,-0.0005427325622886455],[0.0829643081328666,0.11969996414293055,0.24695075901532415,-0.8275368150031946,0.8039700470062154,-0.023136643248311283,0.038282562111850695,0.3774129856047251,-0.5179715642045245,-0.9909014680879485,0.19091712042503556,0.776452610149403,0.026248956623669797,0.6427993249875621,-0.24547514492585587,0.59141340747990645,0.0002428631833044972],[-0.7175868059124736,-0.14446082758188775,-0.5587756600898831,0.33088802068406087,0.09532683055201552,0.2318257944684792,0.05918999514678348,-0.577088265413295,0.46459431164323695,-0.3713962983393663,-0.9273957995942723,0.5279443329318085,-0.4243233281403779,0.5528506155090701,-0.43542785671866735,0.780499709898438,0.0009257215006216497],[-0.16242984363922375,0.918608265601579,0.9370354050860692,-0.41939679760384896,-0.2779941016231802,0.06742954929475309,-0.8735177381465712,0.32091181166905336,0.018589794618613716,0.23615045703034043,-0.02288554663064776,-0.7615743930008972,0.019319654986498246,0.6560861373853144,0.6885567054321424,0.44447754984219284,0.009035445188271872],[-0.3387068562855511,-0.7574052490808635,-0.2613616475019716,0.7087499170484372,0.2869598257941431,0.8662041814467973,-0.7405579665435047,-0.16276261978585405,-0.5353283746645034,-0.7399593601145485,-0.7100700348462434,0.1817102972809011,-1.0590233941670357,-0.27013342704604615,-0.199904431555004,-0.04980730727340277,0.04604613547061458],[-0.24206791317186682,-0.12768391434184193,0.46205072201840003,0.4419006125733915,0.7605811036650871,0.6555159482536526,-0.12962829445644466,-0.18648825090790944,-0.14217523522919004,0.7730107271024357,-0.006515435656849418,0.9797193699866805,0.5686812913372318,-0.4372952178537132,0.26473586713898223,-0.5963577941792105,0.04409465465048338],[-0.09419025531699432,-0.8671125683355251,-0.9708773330304066,-0.8337059985604027,0.8425839561908819,-0.6469445231305507,0.1311135987860545,-0.6758949536154452,-0.4673800379584351,0.35098194079846307,0.4551305880079023,-0.41232234086109254,-0.7801363322816539,-0.8046245739844698,0.3523667640421418,0.13164307002500927,0.049277251457698484],[0.15765089595580983,-0.09291264957430173,-0.5295076349992158,-0.12883311665613784,-0.5608333484958766,0.42178339412281557,0.8395323953011672,0.29832094921078456,0.06405488453528993,-0.22487812565065254,0.256618616893264,-0.2207580988615487,0.44656842379134276,-0.4949454424797672,-0.013003928263439794,-0.49463089002707467,0.04383181201736233],[-0.282545180657201,0.0790503081084557,-0.4265557348123532,-0.48816462098791774,0.3195295806119285,0.8009781244357803,-0.001717193536234511,0.8596446804306774,-0.008260632130132894,-0.6027687664302936,-0.5888907598823913,0.3572719912702452,-0.333373647399631,0.7647110477653152,-0.6985362375333288,0.9819922179237855,0.026295514832879792],[-0.21641693041493038,-0.16692275196275952,-0.21923666526939153,0.18604695921371153,-0.8457545270752179,-0.2788289236809569,-0.35961972912829193,0.25376481488725455,0.34069503133069245,0.8492900290972177,-0.9961687335173128,-0.032131783070589295,-0.5745735521832072,-0.007843347415444308,0.2717335099459492,0.29387817677188516,-0.0012597907769508845],[-0.7967404657028339,0.9241814038213888,0.7456194353280522,0.49660451894678126,0.641636027525792,-0.16591265951912074,0.5051789018346508,-0.32198306854626785,0.08864072744602593,0.8813888609625018,-1.0082224174946084,0.9528750685299594,0.7343936616862374,-0.6952977483841197,0.7329316068804832,-0.33068840756266843,-0.0005894196798380815],[0.2679761085975805,-0.3855097435925292,0.7958035816281401,0.40320640271005426,0.2552998772445586,-0.4647836943043875,-0.19194144314121442,-0.3433774437070505,-0.7328728900135564,-0.2087100694710289,0.5491521050255685,-0.11371388302080877,0.8663076533730724,-0.15070562095097997,-1.0153562385085129,-0.8002325022299618,-0.012502055490792087],[-0.09040631311498881,0.846468551942828,0.6562173662745928,-0.467980880842523,-0.4102301936065493,0.26456971082430225,0.35493619580333985,0.7570234245448623,0.04999153043344671,0.33744331407193645,0.6142268136573542,-0.01960943614915937,0.7146291665198071,0.3933903581698809,0.45066308002326777,0.11586803496587376,0.01595530146249591],[-0.8698729695146312,0.36943398764904545,-0.5300235544607662,0.3628618018416472,0.7887236662092418,0.37802043460534085,-0.8420258146905961,-0.8527485004054259,-0.9401483708397957,0.7038140202846525,-0.09666919889717707,-0.8698934673468907,-0.3825883035383858,-0.034219530541151406,-0.8568046513845671,0.6397266298228089,0.019413915927419034],[-0.12165474571364687,0.9044311220595509,-0.8645039591598641,0.4465429043317889,0.04062135892796509,0.589134571617827,0.3086729631781232,-0.8243355045599704,-0.17931660662974372,-0.07309836302241315,0.027306327777832467,-0.2649088072900658,-0.6446565037123357,-0.4273684921203995,0.6506398983138422,-0.40953328962167185,0.023967810491847017],[0.9918237682393862,-0.7930743719852393,0.9386787016029868,0.7705711716166285,0.4684844206262921,-0.7916308097990438,0.9779629479990856,0.6090849765017807,0.8160740283497453,-0.1022144899656377,0.5937905975362388,-0.3748801089094917,0.8674140441893686,0.8264299287318726,-0.9149155879535442,-0.15710139922689212,0.023562435074028578],[0.7830178503799334,-0.6870442660043452,-0.721428651740368,-0.16523572750924234,0.7903035999946272,0.6797470614206993,0.06743821432373835,-0.3251678774164797,-0.4419086012535104,-0.8966275428125547,0.28522142887099267,0.0927082420958251,-0.29265770111614253,0.019113304524479974,0.5242259110735236,-0.22907835200774163,0.02348739213575151],[0.2907691743647536,0.5759772615587595,-0.49417369004692757,-0.2308662324821961,0.6676903509952159,-0.39716272076445913,-0.5684563222768159,0.529338212201399,0.4292465772700048,-0.9618699184237114,-0.9587150035020325,0.4993774977967103,0.8988602482840512,-0.7938361725883423,-0.8086803735322504,0.7396137774848052,0.02561095161899382],[-0.41840120936669467,-0.4199631385554597,-0.4699074353509734,-0.6089991396794028,-0.8363182752170771,0.7357026945265328,0.1168529516175271,-0.2865906066114611,0.737038677978242,-0.5805549492097287,0.7426235324012606,-0.35426080753241096,0.4363269991965398,0.32476403233574375,0.26265027148046916,-0.16649333820163692,0.02939727366961752],[-0.03494914669308302,0.8967552623632716,0.5172545821879808,-0.3334527528696996,-0.59626390404784535,1.0830734274173563,-0.7709905451382351,0.8663696188931994,-0.9950907672900284,-0.7028491210169826,0.28960087500761705,-0.9071005779744836,-0.5160175619689131,0.5223323478729105,0.6836509514761132,0.14578083123105406,0.029109706522646137],[-0.8266572010827518,-0.6823244934482576,0.45436314632792113,-0.637520935225458,0.9406909788587531,-0.2913104095318682,0.14557290879494614,0.7274667666308813,-0.013083517102812959,-0.12084011678400307,-0.7040224807737484,-0.3735305993222529,-0.7902279674514452,0.581838843054928,0.2723013004115648,0.26322175520400265,0.03488675477855581],[0.5592290459010885,-0.10958960096278496,0.8227700347325995,0.9759961123405947,-0.1266920343106575,-0.8097336807670906,0.9164665555713375,-0.06668103733291489,-0.6856001555521094,0.18515073452411612,-0.07611191479669197,-0.031314261523122534,-0.2854718313239806,-0.3701343252975517,-0.9968951879463654,0.023843451842131776,0.05740076723655125],[0.06250773047213798,0.5554900311270224,0.25974714351045036,0.0040269281036542405,-0.8311500103032292,-0.4501387308354246,-0.16197076447994252,0.23726705538345497,0.25365414018051713,0.1091136498158091,0.7557446848856517,0.6379852747657896,-0.29135149304086005,0.040225971613551875,-0.20052479602550274,-0.5430459027192533,0.06187484790359808],[-0.9454324692233617,-0.3239337091070977,-0.7372332425138648,-0.1095784938571344,-0.19733237189862415,-0.6689713447468421,0.9782570415415862,0.22125872458027487,0.33260808283907445,-0.1400609878936961,-0.8622370386110046,-0.7329173072023663,0.5383418048985865,-0.880285042402656,0.1467492242968681,-0.18632435011642504,0.030799494961444882],[0.7972340852940614,-0.5498707479035632,0.6430559695596968,0.9187480075435409,-0.0639638458643695,-0.3584493244474075,0.30148332476278483,-0.6915478049449677,0.5637992750589124,-0.018334468108862214,0.9115649333749991,-0.48601419352773284,-0.9104172166631924,-0.33471838717130153,-0.24248107334546634,-0.6568846893870807,-2.7006107833010887e-6],[0.4976716085791921,0.07792234451989656,0.10198558089100027,-0.7531337155670221,0.3452701178026891,0.21979394981002817,0.6122006544698315,-0.17822034945982296,-1.0864249223817741,0.6423784035749199,0.018042922778668122,0.7258674901439529,0.8366020199389003,-0.8754829080466177,-0.7121363241408878,0.8020059547465906,-0.002098686185582994],[-0.23865995427531184,-1.0066684403648258,0.6320824426416566,0.6494071027858055,-0.44750148759837277,0.06691021489858656,-0.8980911858404081,-0.7538651773956729,0.8967962380757579,0.8970158530619773,-0.34598877664160604,-0.7337714486695905,-0.3574400470071948,0.41165051333171404,-0.6493041991913389,-0.7080008871536994,-0.0032870997956615734],[-0.3130729390834798,0.5592965200452071,-0.5198132126355157,-1.0127805445778417,-0.3356280245691822,-0.7818771900446573,-0.05111136202406491,-0.2892138200689456,0.7325273046927616,0.8522953648987072,-0.7118654599378832,0.8158499235985818,-0.9141475702593531,-0.4214190329042493,0.3931264884509973,-0.014898425157974753,-0.01217077699176374],[-0.2350867945864269,0.1582361351382172,-0.3890303623667333,0.26713639152320967,-0.910972684336591,-0.17563282182508602,0.6960216929533504,-0.8876866515841312,-0.3844407248130278,-0.7415518554384153,-0.775559842213271,0.474631966173108,0.78309282732603,-0.41557403516361413,0.5676832507139633,-0.3798399189549597,-0.01535160199287827],[-0.6949644180456942,-0.8150158144694909,-0.41436120758559664,-0.0763477744648542,-0.7337190130674782,0.6350207900515938,0.8230162240074327,-0.8787881301022101,0.3919816768345922,-0.9611736920883391,0.7773322400008752,0.6774974025239555,-0.27139457437503356,0.16847385500959955,-0.4684503956141577,0.6339146226112979,-0.009242198917893739],[-0.5299054437921873,0.24831650410099798,-0.09782256083665991,-0.49702683274133536,0.9140863989312953,-0.31563259103742425,-0.20036886662796582,-0.36540279188135494,-0.11286885557651623,-0.04668906243203815,-1.0354816395227373,-0.1590630794621569,0.6425256268893416,0.5101299449121071,0.33262107642077804,-0.8958048701256344,0.007827265135645049],[0.8436231286468092,1.0262503067775182,0.010137724691638351,-0.95627547423191,0.46332325570355337,-0.0841764068915209,-0.6796425962742069,-0.04409478794983385,-0.08889727585145014,-0.9753882335095689,-0.4452099571255002,0.7869011955145999,0.3217880559100752,-0.01347599567571398,0.3065869121207558,0.9556499201531613,0.03320993828430669],[-0.6293541936340529,-0.6738736527172937,-0.5615667450394786,-0.7685870707806353,-0.18981786590267724,0.2916508455082996,-0.012415803202575758,0.7501504410592205,-0.8001457590351821,-0.1045600873501463,-0.4668062021003439,0.968683502079937,-0.471908760880073,0.7423264846593463,0.9482065744925732,-0.4535388855221615,0.03721348868852722],[0.8872011424448347,0.07180915493880555,-0.44680142274874185,0.3262976265566998,0.8044558039659764,-0.06881424503633474,-0.59132556427683,-0.25272505939660944,-0.08912564067286867,-0.09257586756622832,-0.4986674656632285,-0.6515286769150701,-0.9999110877577952,0.7060160418740163,-0.8521064967851248,-0.4420844151824222,0.04285746934593369],[-0.8623729431360834,-0.30202055804127503,-0.28663886515909687,-0.07406376319986009,0.8140766336307038,0.7678146186445273,-0.18805521318830093,-0.954030085265209,-0.41910052019156285,0.2959121800526235,-0.9983153671909848,0.2375444324526428,0.13723876305930816,-1.1282967533506625,0.6238518731843018,0.20283380597390052,0.04659993887563878],[0.05290055603389665,-0.7559248004413456,-0.5616502249721981,-0.18559722950997196,0.04980190847982877,-0.07625080875059109,0.7255768481382895,-1.0345487123244863,0.697713543370367,-0.8264030044862446,-0.6905960023990908,0.8690001203322013,-1.0337321376471154,-0.5868199559560137,-0.765027569624088,-0.7237467435105616,0.053562885763159936],[0.20095084849789302,0.011429467437754285,0.10313404888696333,-0.0355899389173043,-0.3217734856644426,1.006255131830172,0.17193196268685146,0.25599001600806975,0.1636707032540125,0.11448541391711567,-0.5243652662618395,-0.4946111704413699,0.07519013635462087,-0.9140366533568237,0.5085315040595327,-0.7057548494852796,0.03435969836512242],[-0.549249472817988,-0.9834453406026347,0.029976618627628036,0.4508861175134908,-0.15180807430710527,-0.15852083752899238,0.5788685183595578,-0.44556434252607224,-0.10488733000457022,0.8436834776422243,-0.6155622632319533,0.06954654452916716,-0.6427589773534287,-0.36679368047143757,0.13814182822772292,0.6899192869221932,0.01429013328123042],[0.7677919640055819,-0.6655558613726572,-0.38638110296853795,-0.581869314192999,-0.7359235171533919,0.8667299503059485,0.8238846786992338,0.4435544961159155,-0.12016117424772872,-0.7097852963059649,0.8660287742534796,-0.8608856835563439,-0.5258137367368273,0.39111369813631325,-0.7614053728374549,0.0633583628924875,-0.008917161310237055],[0.5204450895639345,0.3842431523546166,-0.5251272064188269,-0.6608186874152108,-0.8526232646681198,-0.8468305445919372,0.040314786614331154,0.08307765232881309,0.9065683369144542,0.43653180993839164,-0.9506874501176539,-0.5871410375885616,-0.8581248111016373,0.20428274523034742,0.9240843317504964,1.0455211431463987,-0.017941152828220952],[0.6615275031242183,-0.35176358884469117,-0.5897094529078186,0.9026643849608393,-0.5670555598302528,-0.6547564892983793,0.4714027310627448,0.3486243165275452,-0.45659925834403525,0.350742021794294,0.38585846377726757,0.1906083065243368,-0.19653124074804246,0.6564570175680668,-0.9401314009208299,-0.5433717458852128,0.015604336539031097],[0.1465212801222322,-0.3600379163978059,-0.24514201014314108,0.2877899802996234,-0.31231834138328024,0.8966090015325683,-0.5242354853687212,-0.3679337183135649,0.2304519372074031,-0.4723113581760355,-0.07603430903590136,0.5574896780310139,0.8073112760915673,-0.0981259417304033,0.4107605679647994,0.5769214786995661,0.021753125384951194],[0.6190061912029079,0.9267957295882525,0.44531145266959926,-0.9706641825642048,-0.8435311172356831,0.015554694747879143,0.4635481183150686,-0.2609987571611312,-0.7117449848892775,-0.14955733884083267,0.8080895091317318,0.2639274695370673,-0.4406769751142604,-1.0557283501100156,0.5222479637217585,0.8063440548332901,0.023414760180587236],[-0.3581743293247066,-0.6210224804621431,0.061099687454850345,0.32081066317623064,-0.8351638084466928,0.6383369226155299,1.0042352605623817,0.4421664860427496,-0.9047314319549031,-0.05696365594263267,-0.1318602617255865,-0.9083410768920458,0.8640266178429356,-0.6333961708395457,0.48591583945010924,0.5786901230939757,0.024638188308474685],[-0.6587440537562333,0.0431828719128404,0.583790494646345,-0.503326094570065,0.9526316184910784,0.155320442677851,0.293318760235454,-0.7312926034649129,0.959805686513895,0.11932933795489896,0.40850462046951047,-0.29550725527386074,0.10020990013953116,0.024329588908379267,-0.6443858783217815,0.7967917264873978,0.02641465971012026],[0.45132604681482813,0.5319467398963852,0.07502810046806131,0.6011838143397967,0.07762348594097712,0.19495620138094596,0.11241294516477818,0.2242077347476938,-0.9087143545537044,-0.9907145209265966,0.18269903050491662,-0.8485689227359318,-0.5977316423406462,-0.2434845955430437,0.5836114378181029,-0.22141186100588434,0.026398662910358098],[0.8517566685805826,0.2830278486405312,0.22959402957547217,0.8049176576294622,-0.6506101914880128,-0.34323296373090867,-0.8628345131543449,-0.691097309934421,0.6813044865655258,0.5820951288307172,-0.06831391071656631,-0.03249439645104397,-0.40103226198615277,0.33777620623836413,-0.38511908772799697,-0.879338132915879,0.02918395713397499],[-0.05239093725215227,0.8177869617036551,0.6637633585083809,-0.9530944244331445,-0.06769652417286134,-0.09493546387236942,0.31058336612915144,0.031342659731050666,-0.21223393564266624,-0.4706282669391802,0.11971460549357832,0.3660655303283542,0.2753558072126236,-0.25707761273183133,-0.9932766026529785,0.19428331194522008,0.029158124228554533],[-0.890650620633108,0.3429386186469765,-0.07157991572986057,-0.525269657169873,0.9123455117281781,0.19404262362705904,-0.1427771268064243,0.6203928995517285,-0.4007196171745807,0.8025351809456441,-0.491368532853317,0.3998909100613984,0.1466942301510958,0.1594713422124315,0.3710558164603712,-0.8194805414939147,0.03563656091547989],[0.0680503552165117,0.1323671935559387,-0.8723196474644098,-0.9853639915798109,0.9447815599586167,0.5840474348952207,0.13465848905364453,-0.21890785136716037,0.8976928657867914,-0.769370455817867,-0.9493453585765471,0.38071063205029804,-0.005875554126694845,-0.9141567424547082,-0.5469905512606635,0.22223665400971981,0.05437456039381405],[0.5487143413856226,0.4698337668625487,0.5896632165115809,0.44969302651718035,-0.4302822617930772,-0.4010213506930832,0.1948120898018131,0.26306175663336684,-0.8145676580257531,0.6752778756573083,-0.41930617575898327,0.5269122244210213,-0.11893724114728789,-1.0525264719203735,0.6090317427446992,-0.9170883302921748,0.006344107039428981],[0.2044415963834345,0.8074809451471022,-1.0240425321260516,0.11558563192591843,0.3031482591613915,0.2639412347368604,-0.9496587445479827,0.3397687090023971,0.3011553119633056,-0.9372341768475694,-0.3608233060680676,-0.5020560788107887,-0.7946786542494293,0.07519577490732568,0.6027473989912284,0.92189347201851235,0.001459054793061732],[-0.32360138805750827,0.2568515906034512,0.25286432413305665,0.2022320013364625,0.761226879802463,-0.3985205135700176,-0.37806148097450093,-0.8965890188002005,-0.9053197971403705,0.11537994179146523,0.5694523763517675,0.1792706097003452,0.14103870322195428,0.16310981337568775,0.12342109606770679,-0.48213529494607116,0.0011343449920636385],[0.12710096925827719,0.1760473263835787,0.5301256801293465,-0.6170269008105037,-0.6628185489437307,0.7205898560936295,0.8626453719541027,0.7754571105826907,0.6150851891558706,-0.5884320520556291,-0.7468914769221219,-0.967249747276937,0.5656112353690305,0.8320644371238002,0.794679872534998,-0.6021904702294136,0.0006874942718697656],[0.257679160338677,0.12156857708027646,0.5347402286722095,-0.019802019410079065,0.6061047524133675,-0.7147829939578594,0.21692168293704495,0.8247277732898609,0.27784596456382543,-0.30057569165927916,-0.007881662274057118,-0.3749858209428779,-1.0499907843840024,-0.9029252757087421,-0.04417888487785215,0.22126051349369194,-0.003501995207234837],[0.4380073395734687,-0.40060054668313955,0.5598236289347869,0.7408778983491838,-0.8222373309209937,0.555436907924037,0.6755821072818001,0.9151821272227777,0.8646291241608108,0.8258584757840747,0.9182662147899965,0.6172604375493236,0.7463239064746074,0.690512506422436,0.8425740128760378,0.15250346517696792,0.0024962208026838334],[-0.02653386398522828,0.5091362789525692,-0.8979508148629683,-0.4628997200666156,0.6410616722338289,0.4468831689238129,-0.43937592150143584,0.022086226423893775,-0.9483525548530886,0.43327069112480926,0.574469119305201,-0.8211368192456491,0.6216910894210005,-0.4818483415952009,0.252012848497238,0.21296668993408008,0.007075850198271071],[0.25314530881733877,-0.053249674631943245,-0.0664589539428161,0.38606525076722814,-0.6385499116531341,-0.2792013424429522,0.5117151598816418,-0.692015839355036,-0.5298466398600942,0.31556175306130513,0.8225256245929842,-0.6212391607315155,0.10198269297443038,0.6462692331812,0.4161813530146627,-0.7828049333472991,0.005710214609353083],[0.29222508859458607,0.6052622088997576,-0.24901128293232802,-0.11919090522998081,-0.09080281622063391,0.41092729169042325,-0.9060590411077868,0.05444474326877488,-0.18017347595793948,0.5768315910377788,0.12334480535193139,-0.44614403685941006,-0.8166705509053721,-0.6541786778976534,0.6557838743390448,0.6106832229147192,0.024234965826243834],[0.43012938621925634,-0.31949016484371884,-0.03151570767619877,0.7159562041857086,0.22954065961862463,-0.4326898917280056,-0.8175264418025568,0.760274195842074,0.8365435914570949,0.9301802260994543,-0.9257615738250403,0.07463571404837585,0.6890311652288161,0.41838704614481403,0.1787219203799614,0.16727470048878543,0.03128208736552639],[0.17260662893420387,-0.9533290585262474,-0.9827050825611743,-0.9596725821144085,0.2773937820143274,-0.8211206536885093,0.21907570521084208,-0.8899798086935625,0.7132262866143254,-0.703675594684251,-0.38579878914408205,1.0165245826289473,-0.2540895111430855,-0.8162585794370437,0.48522949826957934,-0.6353820706353921,0.039254726741947396],[0.0023553739312829336,-0.4178272319972526,-0.9525555114574227,-0.7919179897628644,-0.0343170442909003,-0.7041663103367325,-0.8933342193090877,-0.16915581630178375,-0.8333034711356054,-0.837843452987298,0.8845426173958992,0.9850433629145066,0.6480963677396594,-0.027674248752914028,-0.004265600835750429,0.00660850173761066,0.033389632914829485],[0.13584181998662737,0.15489349386620402,-0.038411389196870656,-0.6237109731829878,0.1500238172005971,-0.7260361765708061,-0.3652677697212646,-0.13960233399848096,-0.5413303949227553,0.23551125971815537,-0.13296552768571024,0.3656492946847416,0.5039766567569098,-0.7111566042611029,0.5634080067155218,-0.3281214886176717,0.04328140634011957],[-0.029325108523166277,0.703560440913166,-0.22198777143601187,0.8790257586781561,0.8726094269708633,-0.01555342158713051,-0.1292419642088065,-0.985841416901546,-0.0070158771377358846,-0.29173921843886697,-0.9917531971543813,-0.14934103086585895,0.7619717686048707,-0.02402632601943911,0.6653849193332394,0.06514713232637015,0.0643470056179948],[-0.8010743278083737,-0.2901235121210921,0.35342006150599986,0.2778324068544262,-0.11272720478330203,-0.9163450152519009,-0.685533014885845,0.33815459790997643,0.1678837982356278,0.13488470391912855,-0.3138713519388084,-0.11365579789949493,0.5022207687418688,-0.7273838872189847,0.34811213598462426,-0.36890645694147906,0.04012953040386586],[-0.9367010714191483,-0.768335489917949,-0.5467156427594415,0.863846001391278,0.12373224122826428,0.412364821927572,-0.9267747150598774,-0.8877371776018386,-0.9972384168696453,-0.9370762123115273,-0.09674034512824826,0.9573161008497826,0.1227135547956577,-0.40718915736449934,-0.17916058531277532,0.4699477388778335,0.024686709228057265],[0.4052894569026724,-0.7185341208215975,-0.3016588277181652,-0.7530621502961665,-0.721209181133744,0.08300966650041307,0.7433292164009473,0.47245151208808334,-0.8664913990310644,-0.5562112760580791,-0.7504876636968973,0.7950777464165992,-0.21344707671523325,0.6240417940362363,-0.7563825292314073,-0.005470040133489251,-0.00752159067533173],[0.9499865080928367,-0.19156737826110407,-0.17736248998170057,0.03778338661836262,-0.8880593160949452,-0.05368992685000116,0.29499139268544866,-0.8348981570723802,-0.058094712170457946,-0.7914588946873214,-1.0053915860339595,-0.7946249704603686,-0.1352504900431576,-0.13926920239990515,0.494575740136968,-0.5887548342223744,-0.012264535653677439],[0.23168348298952135,-0.7045873151795031,-0.40261345042958796,0.49615119710494243,0.26599537673117196,-0.6080862974626388,0.07541719883260346,0.43532609720035803,-0.20511786490222014,0.3329840374520391,0.10148053083549198,0.7298372479080559,0.01805575423349402,0.3863478493176175,-0.4655565389930509,0.1055051914735573,0.01598680672279488],[-0.7260503013273936,0.44481489596707396,-0.9156547612980807,-0.622362293592601,-0.6925014422369589,0.41777765700932074,-0.3564851009882586,0.27680917286773526,0.6013199191975742,-0.35755342999139184,0.35296534404904023,-0.3821928340444431,0.5592789024195067,-0.12079993861001484,-0.16601776648566216,-0.09364961074842584,0.024137243200134228],[0.24015060124925824,0.530356932870852,-0.6552738381466113,-0.5046093898447257,0.8531935690090197,0.46657578376247794,1.0170615906667777,-0.3329094289277923,-0.2234318186141214,0.12090446759614279,-0.7220193191976255,0.9719004925935181,-0.4345560664387204,-0.14371626500519713,-0.12235771189085569,-0.058365888616619725,0.023296073951923273],[-0.6359729644078636,0.0674298985671364,0.2741359349532651,-0.35207468348983106,-0.5666280390769396,0.9632472683746933,1.0026881892186252,-0.944211553977439,-0.39721667064906974,0.3620598208428849,-0.46061624664308476,-0.6388063524562688,-0.715113128485626,0.45606273565763245,0.09578813739581336,0.6142347227806532,0.023783690682822878],[0.02207704494804008,0.5692481754552702,-0.9265386052828605,-0.1436867423687671,-0.018406055085597575,-0.8515651018453105,0.6136582317530768,0.7919343094170449,0.2813699812606586,0.9018442783173497,0.6323923156301768,1.0272580784201177,-0.19014339655595813,-0.3941681061679018,-0.18047977895064882,0.22062708171843534,0.02543136940395514],[0.7079983119424424,-0.7704289013640114,0.8268637535347187,-0.87450690175322765,-0.8453211639955558,0.9145990894079445,-0.7531071121390391,-0.17717225389028626,0.2637358961156905,-0.17863903863837374,0.049825375378462426,0.7116072024924164,-0.6972197970768331,-0.7792097581317988,0.18949769664247668,0.3301884778270394,0.025820086087899694],[0.8293553515474104,0.38103029242697906,-0.838871405574983,-0.18495178480312974,0.49434254113329545,0.8893435109395401,-0.3380792786975539,-0.20937806504921294,0.7102269725971966,-0.6710874182944837,-0.2633378759369089,-0.3371609474823343,-0.06848612558974145,0.6012644875658566,0.753048470402634,-0.3221895514466798,0.028183413549377385],[0.8929229238503253,0.6962318734732433,-0.2516866874870187,-0.9391784477859768,0.574012435010985,0.12905356699135356,-0.06506226395917791,-0.16858153468577497,0.8055064395865519,1.0009857795700619,-0.49763977829312145,-0.7456245853555232,-0.7799040642627779,0.7194926218717399,0.4908559285167072,-0.8899447319250094,0.030359516118363662],[0.1776919612557124,0.7708220927251713,-0.16151481737507412,-0.3141767922142149,0.5824465354283,0.6463490361382938,0.5516371417647175,0.30165063193592895,0.7743193616419979,-0.7087693857795819,0.8974139159011191,-0.11174725640996931,0.8991416116604954,0.6828985997756782,0.44921961037289526,0.8726247407625962,0.04378702205361127],[0.4962629580387208,-0.6883166973945187,0.8424092349680705,0.07248611481950774,0.35226198888523624,-0.07680117545770918,1.0118955736991908,0.20839003711547607,-0.29722033776315143,-0.5177866101698146,0.38083754546964366,0.13029636469079298,-0.7806264092732981,-0.0924608037985476,0.11400737524640746,0.4830220087970092,0.04706034481765768],[-0.2064320236474425,-0.9554373061322329,-0.9021201424079203,-0.6520162188288405,0.5870066477344082,0.7958078329693273,0.7920650749620229,0.4817778102355083,0.869786488725301,0.6577749932707917,-0.7234991928176538,0.9794132702816412,0.4158104165989223,0.7433770558541812,0.7515117836999506,-0.029574912263253587,0.003412080176594142],[-0.8283378890847498,0.6705531940262824,-0.9837755873023522,0.4698164060537781,-0.5127750641930314,-0.8318605380436185,-0.15227138594042558,0.35062618083087593,-0.5518872967462648,-0.8137206617531983,-0.6286883832644592,-0.13843852781563362,0.16147236049069102,0.48885521969878015,-0.7322346846669527,-0.9333180267156516,0.003454770469515513],[0.6684231002202365,-0.5797205723216889,-0.621879504053858,0.21380023362979636,-0.8918072697760392,-0.6911865449352191,-0.15592504301315382,-0.8806126522731397,0.7968555705640347,0.028733466165346663,-0.9748763358262001,0.3971810153190867,-0.14770460898195661,0.7725432249411941,-0.6696504221175437,0.16815019331360367,0.0032626290907094863],[0.598579956962997,-0.6073934258121225,-0.401036164800184,-0.9519875971909953,-0.5577670757569327,0.5640673889339933,0.5293652385987037,0.02347467478158714,0.6061056025780966,0.8077003958541488,0.87188614221746,-0.05306833974452361,0.379541300111038,-0.8867306737950674,-0.05958634221701489,0.20114635523218605,-0.005759080331430015],[-0.3028903851764697,0.4081349645736151,-0.6271709209621508,-0.22745299160651364,0.5695559379069399,0.2959501287875473,0.05008163327004124,0.48768682241464706,-0.7515951817009169,1.8493915043944923e-5,-0.0911042106414393,0.25181348412538157,-0.13989583135585856,0.19149233867724624,-0.6722667449911356,-0.39526734947806913,-0.0032173371458406714],[0.7369503293824151,0.01593210173841657,-0.3786707884138575,-0.8489085006053158,-0.5662477091852568,-0.7629838287252138,0.34091466019991506,-0.8627634748891106,-1.0037420337594263,0.11465559140367661,0.09496869759793748,0.49895447907500234,0.31077128581901975,-0.9935374991025797,-0.4014461392818195,-0.8390288892448192,0.0021134133200125405],[0.5360266647935037,0.058898875149345095,-0.09858476368501311,0.06494048668149323,-0.7503574125337285,1.0383104647330683,-0.25047923849339127,-0.4396950955907153,-0.00898748554464675,0.5396607311515462,0.8060565461154617,0.9844546898478498,-0.18959426695832446,-0.9040789996390044,-0.5028398993801718,-0.2966457270423104,0.028855785632195534],[0.2392414553273663,0.20218137480394538,-0.18764143920409881,0.6154587509972805,0.358883474672677,-0.7531948082851111,0.9774498815836189,0.4118894895524069,0.3564517546930532,-0.04932468052863282,-0.13833747913645228,-0.23969815359219965,0.04691674252756314,0.4202645033331717,-0.1851576895897802,-0.2567793608539517,0.020647427610031466],[-0.37771728047063446,0.8055752965755263,0.7714278585317406,-0.20044443799781494,0.7651104070567026,-0.37746984889603974,0.567719811880899,-0.19594724220031345,-0.815979999547249,0.2748809117712023,-0.2603871063102056,0.06026588710767138,0.46879079239307914,0.19539114699628243,0.6577859740685071,-0.10212895079456208,0.013903306555869584],[-0.45449276056815535,-0.4207346474912223,-0.541550171827218,0.8254369443943095,-0.29618647969525336,-0.468982618161701,0.391276197526563,-0.951189145944559,0.4576552063230844,-0.8278825850279156,-0.21388968841483652,-0.3676910160135541,0.7003835671659653,0.5567796024562118,0.25007778567271666,-0.48123119942067344,0.021189318085139443],[0.5262733434914952,0.14763245008786802,0.2588284818951449,0.2339992253579488,0.6210061332983001,-0.07349079366490102,-0.8192824375325192,0.769357779553516,-0.8499599739735223,-0.13200903660060415,-0.2113336372413782,0.762299645728323,-0.8534061674101174,-0.6091315612620488,-0.5030533427015652,-0.09490314731841998,0.028558852406542528],[0.10579377371156307,0.09826649662967497,-0.3518001336525509,0.7738094604465037,0.47358976975115585,-0.8754543836275771,0.981937630614459,-0.06958953429992437,-0.778868219090694,-0.2413931467402605,0.4995314508297659,-0.9024316564810901,-0.6183746198645187,-0.30035687150018986,-0.572625006763033,1.1131338361390442,0.029143053662281877],[0.9544548904311168,0.8421649619585037,0.23634652104734416,0.5306410116122735,-0.39080761324147184,0.5106987558799624,0.4460147445713998,-0.2580344273527653,-0.7263422797769628,-0.7508337111667067,-0.5156710515818376,-0.401574525611671,-0.3152041789729391,-0.06595261926605375,0.29585743465340475,0.9792756106426658,0.02924106789563576],[-0.8875535223109431,-0.9299680975206228,0.6487632509954314,0.5200835008840123,-0.9296223485027342,0.7219775903640454,-0.39804403694100693,-0.7230266474962715,-0.6463526982475697,-0.8971509057679689,-0.6634505738448403,-0.07464819881094502,-0.15763735433841095,-0.23033742607932545,-0.17666403268452258,-0.016001777372069058,0.04307086690293128],[-0.32942528060144993,-0.8172199628012746,-0.5733536276548965,0.2086953902257969,0.5994225411379756,0.9679974853822466,-0.8810878460356426,0.8578595968482686,-0.933719927163158,-0.4221977017877447,-0.5895150864582106,-0.03838390890359916,0.5338018023117563,0.7496729787298557,-0.2515320767665064,0.8305498625789257,0.04285439187639194],[0.8785870707959809,-0.49810332173320865,0.2774411061687554,0.8882856596044114,-0.8424452118515352,0.958522517112322,-0.6530247595721786,-0.4964270096617522,0.9461466477237018,-0.3219152632218367,0.36963439969183903,-0.0004775291909599856,0.4794614422526423,-0.7530010808830928,0.7849729461565614,-0.6633536430097764,0.03717537627767228],[-0.49238969268854227,-0.6763456709693292,0.4558357598634819,-0.9461392289100865,-0.7975129815790571,0.6271407699741031,-0.9164513764435659,-0.7041098191055257,-0.8516640406754478,-0.5029129234522238,0.18033324083019453,0.8557267571285958,-0.720902078246163,-1.018380461253477,0.5126804757025142,-0.6704417382332873,0.0010716182559797728],[-0.4359685571100417,-0.10458352552686292,-0.8664279155441096,-0.3235943168620717,-0.25688104015413316,-0.5118608530708183,0.3366379945583538,-0.25359551090064675,0.1497553541988776,-0.2933668327725957,0.6218200020062723,-0.2367839909669281,-0.016119769077446618,0.46822506838055883,-0.09215182301973981,0.6581000088085078,0.005684398375035554],[0.862047239142492,-0.5196747958388408,0.6426033236980424,-0.9690507819082324,-0.9941949930336128,0.7047162263973458,-0.5156734977286328,-0.8252143888148777,-0.7882718580973188,0.6533348463669449,0.891862485632971,-0.3875181373761217,0.6655674402281082,0.42112656197585036,-0.25177018312597343,-0.612563562713725,0.020661634272004285],[-0.6090436110315116,-0.024602520737146177,-0.002976325833487917,0.11202467026559797,0.411304646812722,-0.6815552929369159,0.9829897845955764,-0.4276938504399276,0.03633016218459197,0.5930569100630475,0.20178653227946589,-0.8414132105605499,0.09730904716831813,-0.8617190439575132,0.6163287287932762,0.08961869767460835,0.02713705966604191],[-0.31453022515146534,0.3625156191089833,0.08004094155767859,-0.3320645785177481,0.04158295954034669,0.5632828723122146,-0.03141434052741979,0.25454507458575937,0.19443124950048574,-0.1439947724342531,0.7617468647739684,0.031101953834630734,-0.662119075650952,-0.44439062522460515,0.22977609510217226,-0.1431072117465441,0.022756224863692512],[0.6032052466660762,-0.668516149935255,0.8964341784307592,0.00035875874785350865,-0.3567092807623336,0.9159998703087554,0.6560044610528043,0.6874967385559773,0.4772244486621648,-0.1400116659596388,0.7389185487271359,-0.23315034457325842,0.06479208693991403,0.44888317895092755,0.6865427794926551,0.8630807315915408,0.022667856820064964],[-0.13760566019341613,-0.12056448996903925,-0.5433676441320234,0.9124427824588194,-0.5789409400222302,0.48064870537632287,0.24615655161879244,0.6642150246402451,-0.6690193220422656,0.007671468813638714,-0.40190728929228153,-0.17169402730849673,0.6457051901557582,0.9269342514594336,0.5061155376835123,0.3032919781721796,0.024761591469772377],[-0.6869496953147229,0.556500856885344,-0.7570885972790999,-0.028649697825797446,0.4349290908110715,0.9808128710242175,-0.2771643674870561,-0.018346367160321356,-0.1698017172725914,-0.5476953538349847,0.6546952973782257,1.0257838440499198,0.9683977941621995,0.4096202519321036,0.7296470770379617,-0.12668083144052625,0.024425954613744753],[-0.6472422059845375,-0.6763304736641551,-0.2930981384452856,-0.21294498777786944,0.7665847892810037,1.0358045756229262,-0.47473158646172087,-0.8761402090185156,-0.01171596614488702,0.12436597638945998,-0.12140889708450736,-0.23991085673396875,0.0745408173134218,-0.5633784501764517,-1.0634595980587047,0.4348574184694983,0.02650733352645061],[-0.9548103650821421,-0.6880813984606247,-0.6636091562361908,0.47728762132815417,-0.7671002363064245,0.1294522454180218,-0.4566465076224524,0.08204391056647614,0.4818148409956983,-0.8128654039247912,0.03902732608405741,0.5893980612515476,0.6126463636841999,-0.18886792929345542,-0.6804682829284673,-0.9696984406937931,0.03290827938360811],[0.21044697296360826,0.16481271142497855,-0.24718818992400773,-0.016644629441460557,0.11914214118888751,0.3606493536069641,0.1965093395424336,-0.8433884829851328,-0.6696362742565914,-0.9531757107866732,-0.1564564703102196,0.5858742236805181,-0.498830842269598,-0.1746869004276143,-0.10292174272098553,-0.39203514691727337,0.041502802507557016],[0.24343879951324254,0.352941469830197,-0.9530092963233626,0.47997869439577784,-0.59725966094583,-0.3061190531865629,-0.3404825259025321,0.983343364259871,-0.3053558154758402,0.6534908203053227,0.4722566244466344,-0.4903093123968554,-0.4847096470822226,0.8458767694242707,-0.5659733192635369,0.7704746442731596,0.02117665127250453],[0.10845512296466864,0.26962013483715447,-0.25464518521189133,-0.7918340617609375,-0.4656103679693401,1.0449183815853267,-0.5078072728400006,-0.01777857107821817,-1.0966714288372694,0.3009389401596238,-0.5186113225162491,-0.3801582717823839,-0.7826000682940398,0.4105499278957619,0.1389259172235649,0.502235399142845,0.004403088388693556],[-0.129686889764707,0.250328191544107,-0.0035422807071297273,0.22873521158499777,0.8316561970370261,0.7502136071971399,0.34264336978936216,-0.3348603337596601,0.24299515682441836,-0.22963400789099236,0.08059734166846726,0.9712815733627892,-0.305680079338915,0.5217331703459291,0.6801530626699565,0.8730976993293987,0.001290135329795352],[-0.08769706035391289,-0.5529910318335709,-0.8989305432933653,0.4009734433750657,-0.6212947714994722,-0.311862230246014,-0.4726334712213604,-0.5873641869062769,0.8618571629256871,-0.07281811479348681,-0.046584734991438524,-0.7189532257606992,-0.5705255049095483,-0.9133410104096699,0.7142350954800025,0.4252653634581777,0.0037115960740850963],[0.4807922204401307,-0.2535802055790354,-0.36079935942987157,0.27757446321026563,-0.6152213349793649,1.0592877760479142,-0.9129811704916272,0.7492302738181285,-0.27758270593064444,0.0875872062182771,0.6786752890184609,0.6027354023772329,-0.30761749993994675,0.3091932089016483,0.4068768712331596,0.7421793171627122,0.00907388702967651],[0.9147888971095852,0.5976737721345798,0.13477242245095264,-0.7304924318320409,-0.8489370834939441,0.7307566754570775,-0.16011261758664086,-0.8973833793158092,-0.3889072280530896,0.7223482400893482,-0.6470596500034964,0.1816053963951313,0.8932087820197063,-0.9661783532041478,-0.4965655296485327,0.528167378192202,0.0021637099266570803],[-0.07504263570301362,0.22417526574673935,-0.22973256215206653,0.2755164061460302,0.16456197251497542,-0.05520558879069849,0.1984671553912988,-1.0337658097870819,-0.9997632085775172,-0.2214574200389137,0.545967622017528,-0.18089828727218507,-0.8264891550606467,-0.08206850792251899,-0.5369848872861244,-0.7478056201423823,-0.0017935584806802836],[-0.3784197072398009,0.67240406728471,-0.5429740220844834,-0.28506044914757833,0.3176199472051977,0.40233264959335446,0.004517739450907221,0.9598935262189469,0.1031758790610774,0.25602673017706673,0.11168412484768042,0.11540589038064702,0.37308544724263965,0.5693723674046305,-0.47975031111940203,-0.5453195258963891,0.02028723095052125],[-0.08896122085347824,0.38672523232846934,0.6752390654115829,-0.9947474592846601,-0.7299189487226208,-0.017435814277350168,-0.821810708638902,-0.7148802990460617,0.7817001775331703,0.6164609096770726,0.05885400999278667,-0.9728971255713073,-0.36789186755490516,0.4894723497391606,-0.8656685792143326,0.4419310764787912,0.01827075091085816],[0.3014318213339111,-0.2905286180286112,-0.9085098640279021,-0.4570617051591057,-0.9495574153193989,0.19028912365056236,-0.29560693556449674,0.15205658334672878,-0.5316455166668562,0.7129345135140843,-0.7821543000199397,0.9143178348032934,0.38885034457351053,-0.27805103385867413,-0.7536884487266726,-0.4913712165710129,0.015570199717074587],[-0.7385709545289031,-0.9455882031149933,-0.5718937588370366,-0.5504407813804474,-0.049232622189001235,-0.30185766751088977,-0.09865495296030236,-0.32461228828470595,-0.6857961755340507,0.880536760095422,-0.345663955658669,0.064357868180302355,0.46646488149809723,-0.19862004453647816,-0.6604359732239486,-0.0268710658094688,0.008790634621813632],[0.6685195172524636,-0.4440206267143707,0.4223017379449815,0.655448422334196,0.6666968665444243,-0.776910047589202,-0.03684807776182003,-0.9325640347580372,0.9019962875902309,0.13365382559808373,-1.059375126413943,0.43834067698815515,-1.0638048368244646,-0.8122654061982005,0.76630373536067,-0.5869698268833371,0.017176905178705928],[-0.6314395925176515,-0.6670187895546417,-0.2601444544716279,0.2600956315857177,-0.060979681446280146,0.7583744209004486,-0.8982298312573896,0.2077701158460438,0.5518274184139583,-0.26104546601939316,-0.7876722981936354,0.17787503543748695,0.6055287435380249,-0.4317590272158611,-1.0154427914914947,0.4866858992622018,0.021952335016939578],[0.22482647058778737,0.5488575467197491,0.0029510215738209594,-0.19352123651994785,0.6596620584302266,1.0711894136425293,0.03136127129177213,0.5425953108758595,0.09794248758643997,-0.016285890947676764,-0.05149595733045693,0.20876704355818756,0.19893349638860924,-0.2811669070415244,0.4431034879113355,0.764003821574133,-0.005300752316543758],[0.12166295439082342,-0.6731513988979384,-0.09398146616358491,-1.0139190628496277,0.9621242930082026,0.0886214681146731,0.3442098952931483,0.5011811816527256,0.7272716648383053,0.5783870825836505,-0.34061500946341955,0.5036863685121912,-0.841526950890348,-0.3355951590041469,-0.1887269533443678,0.5592266883753673,0.017758871427304007],[-0.7410375493304048,0.9376406583923419,-0.7153352006986389,0.8650367908562461,0.9306785385597182,0.384279600382534,0.5533583396083368,0.026880327306865574,-0.7442625526699567,-0.5032678623568465,-0.7912685348558527,0.6443820723626547,0.21634309173780306,0.6936568312384815,0.23516122720435184,-0.4774053409492647,0.03222766906898937],[-0.940413214238553,-0.7422848028038354,-0.5838639161459658,-1.031959010696478,0.29314483597396546,0.7997261033157023,0.6329143725069319,0.023820080322385504,0.30544469549878694,-0.7231975224824443,-0.5032794708487003,0.6589161592320777,-0.06904304708817614,0.3648670311899059,0.0525611658561567,0.38675734081810703,0.035063390490479095],[0.3635961848141607,0.46648984773667046,0.13166700381382995,0.24338332512903738,-0.22468320359056781,-0.2872053139236661,-0.5560612422229001,0.07145810077015058,0.1871581848440906,-0.3642015070612714,-0.3432707976351277,-0.4190604763285513,-0.6774084551000686,-1.0358523287535377,-0.06040743674257225,-0.41349702837936225,0.0045324461091154405],[-0.7118315062075069,0.4626027100280792,-0.5678900459501252,0.5301035248579536,0.20491321156176695,-0.93182388742710065,-0.26755235546475475,-0.4366652730471147,-0.6435649515265572,0.21296042922877784,-0.8882672661803215,0.43173504459512074,-0.4272844807995508,0.2264668955307262,-0.3743181787198309,-0.8757871929979407,0.014569764960046082],[-0.25267063139596513,0.8788505968994911,0.287989719409525,0.4912177458665843,-0.45865060328886237,0.6918567242509049,-0.26818019445824004,0.7638846691583779,-0.6364895529296427,0.3742345912164454,-0.7830446387190868,-0.19652484549670118,0.33540001111496087,0.18194027443816732,0.1745763956379862,0.8220524748225709,0.02324352787534178],[-0.29165206909722274,0.734126050014566,0.26188200844393894,0.8743866933265825,0.7506038163696326,0.9477571707246025,-0.41241210999673583,-0.8733042837301034,0.1701700697252561,-0.3196959077842132,0.4429235819895643,0.8827826154884442,-1.0749205735031688,-0.8913893407843473,0.7937859158367232,-0.141079430589858,0.026426280247091778],[-0.9405665136596963,0.18248793589964377,-0.7404749195447631,-0.42461922835223626,-0.1534147707758986,-0.032339218703821844,-0.515934702189415,0.21613325043034237,-0.6993752042746737,-0.32390782013819963,-1.0814233986962118,0.8000059744321768,0.9167161328848579,0.16763852711797547,0.3949043768607901,-0.23136110859433223,0.022366003267562586],[-0.027810352401719585,-0.2454955253396256,-0.4321828425149022,-0.2782752505074705,-0.3069887196274529,0.16583761363724844,-0.029473333054399156,0.8947324119831269,0.788416809143614,-0.6099948169043026,0.6896762398466106,0.8792864606022244,-0.4164141891349851,0.5833174680709877,-0.4714377737090519,-0.2348623732366474,0.021915409412174503],[-0.1604290544802458,-0.1063560365912236,0.25564161576458144,0.7014806844813805,0.8352653458187042,0.7738091887079123,0.012874465466695321,-0.7988687554167654,-0.546854019279595,-0.08784651524607236,0.9256752039988624,-0.5272788544589317,-0.8210181679999319,0.41131871433065464,0.08037439632914896,0.21436354699615098,0.022477697723720883],[-0.7588395186508259,0.7771835770043245,0.8871529472798688,-0.03481127942749553,-0.1129757366738166,-0.09207353293590158,-0.059713341223519206,-0.23566307541198678,0.2927852546733847,-0.38457213545033536,-0.4282249833023982,0.9634507731579344,-0.7120828268985835,0.17863104124191054,-0.4090322991341439,0.1597728215060325,0.023280709623345858],[-0.8473627650399519,0.9594505946062539,-0.1836074629903133,-0.9797720309758852,0.6849743411851993,0.8820165883692772,-0.7013727202728041,-0.8342838904388147,-0.24852319622387362,-0.8135303065640409,-0.41314158303352433,0.023773405012099205,0.6580282632519537,0.7255267104509993,-0.8898177993323174,0.9485571597594755,0.024802723169368525],[0.5651948962198547,-0.8813125497198462,-0.1334690168608591,-0.5132026120034744,-0.05701605653740118,0.8459736777068347,0.30166269663738104,-0.7486260071837004,-0.6220758630297593,0.8559906144217319,-0.8218054575983474,-0.21060724021950053,0.07067141578989379,-0.19669509466599555,0.8158295112514615,0.31106281182878065,0.029864047411326897],[-0.15098532994789315,-0.2322703675523386,0.27031539984520675,-0.45044681331682607,-0.44659600765580837,0.609986623055767,-0.19899964824395475,0.3421788759571619,0.6759628782501229,0.35357385623548454,-0.687054604841434,0.5046829600434115,0.11805263371105719,-0.5252459051870297,0.35253072436229116,-0.2517456175481469,0.032661902961531736],[-0.33029113585608594,-0.6791389454558641,0.19430992717385479,0.6111347283257245,-0.9233305963883356,-0.4271981704530258,0.9759885397327726,-0.44426638453662487,-0.7137491497131372,-0.8910033958772589,0.24356001002653785,0.5520469623053497,-0.0290767593910759,0.11784930681690745,-0.2442568821790848,0.8796966725487412,0.006795231596644209],[0.9631867967374561,-0.9051660246619615,-0.5731303376011657,-0.5097287383620599,0.6206780336064726,0.2977119500142347,0.9767833982065252,0.40789436721067257,-0.48679884940663903,-0.7597692227384335,-0.15513460299334672,0.848341825053298,-0.20988546960187887,-0.7786488191133583,-0.49290807929715924,0.523878009614359,0.0037381082371865494],[-0.3660295258117977,0.7539391950515079,0.14082226921981775,-0.3217206608156907,-0.77144192564057,0.18591788330854475,0.3650536681059434,-0.3542501303348413,0.18468511342294805,-0.44886316989436387,-0.8660100137474755,-0.6169799524418215,0.7423878002436611,-0.09951747818830592,-0.8259197557576107,0.7952787167504137,0.0028086348323857007],[0.11048693168465373,-0.3567307796812807,-0.7139125389161444,-0.30802604332654104,0.8506327710375227,-0.6546470491241857,-0.7531808899021657,-0.5223914550025821,-0.5147883529278174,0.024306423319951437,-0.7455636581727026,0.4954239941061943,0.3315929716215187,-0.26187748560739016,-0.06868452436699815,-0.9131610181672528,0.002351411845139896],[-0.3628722975788975,-0.8393197020818995,-0.26617608538390086,-0.1598711621382753,0.2478351290665678,-0.8262463659812291,0.6243234083539153,-0.4752230010393118,-0.36339241228950103,0.6862643957213593,-0.13569129639717614,-0.42370517972756294,-0.3268284843596235,0.004043221765509752,-0.7443769162422136,0.9222372933004228,0.007439473189538965],[0.7848417664807483,-0.3556825323363041,-0.4245533679933761,0.5957395698225361,-0.11402440314284451,-0.0946520928233631,-0.769645682345846,0.44703226098951754,0.8932257045989306,-0.5929222894372832,-0.07602903116943517,0.3593228336225999,0.24286367294350517,0.8186123256052945,0.3192346410293188,1.0397196087912624,0.01740345461215019],[-0.9080216912124407,-0.8429455575888329,-0.18506492813230907,0.28943308315658905,-0.7722499665559999,-0.445135934770447,0.9936473967132756,-0.07754085530449566,-0.78406497953055,-0.24364201790785625,0.47128325252533626,-0.0021941500381907936,0.844458841321213,0.7025454656779613,-0.22463316005516182,0.7987082475543544,0.013271814438607307],[-0.5323061996755685,0.45131824106816326,0.32464826371869676,0.29875563238737607,-0.7304669850671606,0.6846189968383887,-0.059647252456990714,-0.8265074876434855,-0.9259046119394587,0.7612434372271627,0.5053175264832921,0.4077903124955736,0.6703112776797393,-0.20781348602151642,0.28582781060443996,0.9443687112166992,0.017082133033142897],[0.08530708546066057,-0.7671426976449632,0.1522623868970804,0.2517553651957361,-0.30241281768827066,0.27740162991031797,-0.6285165654960818,-0.09456880351931952,-0.9490833223031039,0.7405182738988614,0.844237122442266,0.9502075157906782,0.5410698422586125,-0.3902304684729766,0.5847839154367622,-0.7792987921856225,0.016590501772642742],[-0.7962788938527363,0.06592792918897637,0.41907976375148054,-0.5813081282688365,-0.35885517667405303,-0.5201707638606387,-0.21652706905249672,-0.3075298310186969,-0.7698876965062971,-0.8146664046701608,-0.9598539710327478,1.0052711890943553,0.09428994330206662,0.34109139910472697,0.7667005501088562,-0.6182234346418426,0.02045231364671046],[0.7133719053647349,0.07147681728007323,0.5405481330883337,-0.6521212719382913,-0.7550985917029824,1.0257294617911188,0.4215957999122625,-0.7845679688528888,0.7326123515774086,0.18713952826394584,-0.9011201393408738,0.40377790242006645,0.8976606582470832,0.7349886040766216,0.4437181129459739,-0.6860037154436244,0.024208773389793204],[-0.08871790351752096,-0.021229365722958415,-0.3922216654070265,0.49834201200944606,0.3779099391887822,0.48769625037044023,-0.6658653789383707,0.5486025113791225,0.6430378442541108,-0.6898471426910595,0.47825873811394704,-0.09839756917784988,0.735762045862386,0.2893630023394351,0.11594750436161384,0.6650931661864292,0.016898704612552544],[-0.5382103917832535,-0.23158737095700452,0.8782884736185939,-0.3774438961633728,-0.2887252719735169,0.38313595007182627,0.011175198571219836,-0.5820788727776548,-0.4857302133490079,0.07212502308603354,0.7492443585737556,-0.4048907573336694,-0.1299282993435356,0.23104754326536941,-0.2622380160337778,0.9933217090043059,0.023042795233188137],[-0.7032311222065385,0.4558799687700314,0.33860499495332497,0.5777595243019337,-0.13658228299503006,0.7500674949298959,0.2943976892151728,-0.4864145481946206,-1.0061104723544736,-0.24523439527043797,0.3473963321434628,0.9201830487784263,-0.913953702635074,-0.5156645321877172,0.40288462854489715,-0.2803039072328077,-0.00018429180497914985],[0.3065594496701656,0.4276523280618146,0.24378956674484217,0.9454866668498983,-0.29073795303507044,-0.670938951408717,-0.5111301029875912,0.25175081549928807,0.32659699384577656,-0.7411164513791475,0.818771829939426,-0.6148964685846082,0.4903381710839768,-0.42832543386256816,-0.7993571449252882,0.956195299133537,0.012868853225085367],[-0.9219351140418719,0.6754907280318482,0.45148697929475057,-0.1046522551232763,0.3584089930186119,-0.19871722124769134,0.5324585598847342,0.37278546925391853,0.4901303067185495,-0.11846276459933364,0.27038443384549377,0.7606262560540996,0.34470041810267604,-0.2823183450906114,-0.6652444265213411,-0.170453828695617,0.016508178894878423],[-0.8341603166582809,0.7009456579169117,-0.32853972276758564,-0.15461353015889154,0.9789555044341395,0.18813559171724067,-0.759135025659731,0.3265338805963984,0.4032919733679787,-0.9798048530430408,0.6810935745807098,0.07698212118640389,-0.4207452690848447,0.9410475256867845,-0.1024539222600153,-0.15095378371257864,0.023347605479507733],[0.6560958883055001,-0.5368773408375509,0.6367783061566036,-0.024857505148078395,0.229707412492119,0.179242943629437,-0.4776470073119438,-0.27662676392976854,-0.9542386271852803,0.7381535408352684,-0.5766625960294908,0.5627621311715456,-0.5525179505124961,-0.1663099139269179,-0.7565422442192925,-0.18119014872870942,0.007163494240051832],[-0.4159177520386491,-0.0044004471275977675,0.5474098612180692,-0.4866942342420566,-0.8153789020194476,0.8033118302008021,1.0324267567598016,0.6069020022214087,0.8259264045041995,0.665434281432328,-0.4110425421685177,-0.44178120195970705,0.6013758141480218,0.552663554371437,0.2106450276513324,0.47107041565392277,0.0237575801185944],[-0.9491258272664276,-0.057267396569609094,-0.649280285398214,0.21503462567276793,-0.8866069338490847,-0.14965289737649304,-0.8730153493203815,